{"learner":{"attributes":{"best_iteration":"1","best_score":"0.9004240689583355","scikit_learn":"{\"_estimator_type\": \"classifier\"}"},"feature_names":[],"feature_types":[],"gradient_booster":{"model":{"cats":{"enc":[],"feature_segments":[],"sorted_idx":[]},"gbtree_model_param":{"num_parallel_tree":"1","num_trees":"22"},"iteration_indptr":[0,1,2,3,4,5,6,7,8,9,10,11,12,13,14,15,16,17,18,19,20,21,22],"tree_info":[0,0,0,0,0,0,0,0,0,0,0,0,0,0,0,0,0,0,0,0,0,0],"trees":[{"base_weights":[-1.4750686E-3,1.6368982E0,-1.0012369E0,2.1186886E0,9.551229E-1,-2.8530172E-1,-1.3490013E0,2.3070166E0,8.4811725E-2,1.2893023E0,7.217035E-1,2.989007E-2,-5.6278956E-1,-1.0781279E0,-1.4447931E0,1.2271889E-1,2.1760743E0,7.546093E-2,1.2612168E0,8.9981896E-1,5.4905474E-1,2.21885E-1,-7.393617E-2,-4.461306E-1,-7.2321564E-1,-9.514551E-1,-1.1741037E0,-1.350787E0,-7.479797E-2,1.0977844E-1,1.0100023E-1,6.379434E-2,5.9489816E-2,4.5914352E-2,3.7726723E-2,2.9051587E-2,2.1890594E-2,1.165173E-2,8.670227E-3,5.3665077E-4,-8.379531E-3,-1.9955939E-2,-2.7300103E-2,-3.3485558E-2,-3.9128516E-2,-4.3584406E-2,-5.0804686E-2,-5.593556E-2,-6.1068516E-2,-6.6072516E-2,-6.9255695E-2],"categories":[],"categories_nodes":[],"categories_segments":[],"categories_sizes":[],"default_left":[0,0,0,0,0,0,0,0,0,0,0,0,0,0,0,0,0,0,0,0,0,0,0,0,0,0,0,0,0,0,0,0,0,0,0,0,0,0,0,0,0,0,0,0,0,0,0,0,0,0,0],"id":0,"left_children":[1,3,5,7,9,11,13,15,-1,17,19,21,23,25,27,-1,29,-1,31,33,35,37,39,41,43,45,47,49,-1,-1,-1,-1,-1,-1,-1,-1,-1,-1,-1,-1,-1,-1,-1,-1,-1,-1,-1,-1,-1,-1,-1],"loss_changes":[8.6251445E4,6.5527227E3,8.141625E3,9.2627344E2,6.437368E2,9.352273E2,5.695508E2,1.5064453E2,0E0,1.9081055E1,1.4920703E2,9.983093E1,1.0610205E2,6.883838E1,7.6171875E1,0E0,8.6171875E0,0E0,1.6445312E0,5.7323E0,8.548096E0,9.0966034E-1,2.5777555E1,1.5252502E1,7.0739746E0,1.1930664E1,7.1938477E0,3.9492188E0,0E0,0E0,0E0,0E0,0E0,0E0,0E0,0E0,0E0,0E0,0E0,0E0,0E0,0E0,0E0,0E0,0E0,0E0,0E0,0E0,0E0,0E0,0E0],"parents":[2147483647,0,0,1,1,2,2,3,3,4,4,5,5,6,6,7,7,9,9,10,10,11,11,12,12,13,13,14,14,16,16,18,18,19,19,20,20,21,21,22,22,23,23,24,24,25,25,26,26,27,27],"right_children":[2,4,6,8,10,12,14,16,-1,18,20,22,24,26,28,-1,30,-1,32,34,36,38,40,42,44,46,48,50,-1,-1,-1,-1,-1,-1,-1,-1,-1,-1,-1,-1,-1,-1,-1,-1,-1,-1,-1,-1,-1,-1,-1],"split_conditions":[6E0,2.828427E0,1.3601471E1,2E0,4E0,9E0,2.1213203E1,1E0,8.4811725E-2,3E0,5E0,7E0,1.118034E1,1.627882E1,4.1E1,1.2271889E-1,1.4142135E0,7.546093E-2,3.6055512E0,4.472136E0,5.3851647E0,6.4031243E0,8E0,1.029563E1,1.2369317E1,1.5E1,1.8439089E1,2.9E1,-7.479797E-2,1.0977844E-1,1.0100023E-1,6.379434E-2,5.9489816E-2,4.5914352E-2,3.7726723E-2,2.9051587E-2,2.1890594E-2,1.165173E-2,8.670227E-3,5.3665077E-4,-8.379531E-3,-1.9955939E-2,-2.7300103E-2,-3.3485558E-2,-3.9128516E-2,-4.3584406E-2,-5.0804686E-2,-5.593556E-2,-6.1068516E-2,-6.6072516E-2,-6.9255695E-2],"split_indices":[1,1,1,1,1,1,1,1,0,1,1,1,1,1,1,0,1,0,1,1,1,1,1,1,1,1,1,1,0,0,0,0,0,0,0,0,0,0,0,0,0,0,0,0,0,0,0,0,0,0,0],"split_type":[0,0,0,0,0,0,0,0,0,0,0,0,0,0,0,0,0,0,0,0,0,0,0,0,0,0,0,0,0,0,0,0,0,0,0,0,0,0,0,0,0,0,0,0,0,0,0,0,0,0,0],"sum_hessian":[5.265511E4,1.995422E4,3.2700887E4,1.1690666E4,8.263555E3,1.0691777E4,2.200911E4,8.082888E3,3.6077776E3,3.3964443E3,4.867111E3,5.0062217E3,5.685555E3,5.753111E3,1.6255999E4,3.7946665E3,4.288222E3,3.7866666E2,3.0177776E3,2.3935554E3,2.4735554E3,1.7566665E3,3.2495554E3,3.2939998E3,2.3915554E3,2.4846665E3,3.2684443E3,5.739111E3,1.0516889E4,3.8004443E3,4.8777774E2,2.4895554E3,5.2822217E2,2.1188887E3,2.7466666E2,1.9179999E3,5.5555554E2,1.4251111E3,3.3155554E2,1.707111E3,1.5424443E3,2.243111E3,1.0508888E3,1.2642222E3,1.1273333E3,1.1186666E3,1.3659999E3,1.5162222E3,1.7522222E3,3.1157776E3,2.6233333E3],"tree_param":{"num_deleted":"0","num_feature":"2","num_nodes":"51","size_leaf_vector":"1"}},{"base_weights":[-9.172002E-4,1.166572E0,-9.298092E-1,1.6876655E0,5.117573E-1,-2.9633406E-1,-1.3448483E0,9.35041E-2,6.8592064E-2,9.6692693E-1,4.015786E-1,-1.11430936E-1,-6.2353826E-1,-1.0372689E0,-1.4320526E0,5.2283276E-2,3.9600335E-2,5.77027E-1,2.925581E-1,-3.4006476E-2,-2.4938865E-1,-5.396705E-1,-7.2345614E-1,-9.735172E-1,-1.1592355E0,-1.3430542E0,-7.3172025E-2,3.0145733E-2,2.4855593E-2,1.8641872E-2,1.08554205E-2,1.6621348E-3,-3.7644336E-3,-1.0824067E-2,-1.6105304E-2,-2.5285421E-2,-3.0202417E-2,-3.433057E-2,-3.9292526E-2,-4.570438E-2,-5.024931E-2,-5.552564E-2,-5.94183E-2,-6.498955E-2,-6.822887E-2],"categories":[],"categories_nodes":[],"categories_segments":[],"categories_sizes":[],"default_left":[0,0,0,0,0,0,0,0,0,0,0,0,0,0,0,0,0,0,0,0,0,0,0,0,0,0,0,0,0,0,0,0,0,0,0,0,0,0,0,0,0,0,0,0,0],"id":1,"left_children":[1,3,5,7,9,11,13,-1,-1,15,17,19,21,23,25,-1,-1,27,29,31,33,35,37,39,41,43,-1,-1,-1,-1,-1,-1,-1,-1,-1,-1,-1,-1,-1,-1,-1,-1,-1,-1,-1],"loss_changes":[5.718677E4,7.9718535E3,7.7206914E3,7.470039E2,5.189441E2,7.0330347E2,4.744004E2,0E0,0E0,2.695813E1,1.5933789E2,7.93468E1,3.478357E1,2.9373047E1,3.6640625E1,0E0,0E0,6.3098145E0,3.1084137E1,1.3216776E1,6.320648E0,4.692444E0,3.8570557E0,3.9111328E0,5.8410645E-1,1.5927734E0,0E0,0E0,0E0,0E0,0E0,0E0,0E0,0E0,0E0,0E0,0E0,0E0,0E0,0E0,0E0,0E0,0E0,0E0,0E0],"parents":[2147483647,0,0,1,1,2,2,3,3,4,4,5,5,6,6,9,9,10,10,11,11,12,12,13,13,14,14,17,17,18,18,19,19,20,20,21,21,22,22,23,23,24,24,25,25],"right_children":[2,4,6,8,10,12,14,-1,-1,16,18,20,22,24,26,-1,-1,28,30,32,34,36,38,40,42,44,-1,-1,-1,-1,-1,-1,-1,-1,-1,-1,-1,-1,-1,-1,-1,-1,-1,-1,-1],"split_conditions":[6E0,2.236068E0,1.4764823E1,1.4142135E0,3E0,1.0440307E1,2.1213203E1,9.35041E-2,6.8592064E-2,2.828427E0,4E0,8.5440035E0,1.2529964E1,1.8439089E1,3.6796738E1,5.2283276E-2,3.9600335E-2,3.6055512E0,5E0,7E0,1E1,1.2E1,1.3928389E1,1.6E1,1.9416489E1,2.4698177E1,-7.3172025E-2,3.0145733E-2,2.4855593E-2,1.8641872E-2,1.08554205E-2,1.6621348E-3,-3.7644336E-3,-1.0824067E-2,-1.6105304E-2,-2.5285421E-2,-3.0202417E-2,-3.433057E-2,-3.9292526E-2,-4.570438E-2,-5.024931E-2,-5.552564E-2,-5.94183E-2,-6.498955E-2,-6.822887E-2],"split_indices":[0,0,0,0,0,0,0,0,0,0,0,0,0,0,0,0,0,0,0,0,0,0,0,0,0,0,0,0,0,0,0,0,0,0,0,0,0,0,0,0,0,0,0,0,0],"split_type":[0,0,0,0,0,0,0,0,0,0,0,0,0,0,0,0,0,0,0,0,0,0,0,0,0,0,0,0,0,0,0,0,0,0,0,0,0,0,0,0,0,0,0,0,0],"sum_hessian":[5.2730387E4,2.3364355E4,2.9366031E4,1.3009768E4,1.0354588E4,1.1624794E4,1.7741236E4,8.243494E3,4.766274E3,2.0164526E3,8.338136E3,7.4283647E3,4.196429E3,3.9217363E3,1.38195E4,1.3870905E3,6.2936224E2,3.1938806E3,5.144255E3,4.758853E3,2.6695115E3,2.284934E3,1.9114951E3,2.581416E3,1.3403202E3,3.6145132E3,1.0204987E4,2.4074656E3,7.86415E2,2.4904475E3,2.6538071E3,1.8102042E3,2.948649E3,1.8405647E3,8.289468E2,1.501619E3,7.833151E2,1.2093572E3,7.0213794E2,9.040867E2,1.6773295E3,5.1614856E2,8.2417163E2,1.221202E3,2.3933113E3],"tree_param":{"num_deleted":"0","num_feature":"2","num_nodes":"45","size_leaf_vector":"1"}},{"base_weights":[-4.3628312E-4,1.0857153E0,-8.923886E-1,1.5564132E0,4.8561144E-1,-2.735839E-1,-1.3070761E0,8.600438E-2,6.354261E-2,7.329908E-1,2.9987267E-1,-9.501322E-2,-5.9387225E-1,-9.884039E-1,-1.397981E0,4.8814666E-2,6.2523234E-1,3.7996265E-1,1.9908515E-1,-2.028357E-2,-2.4298508E-1,-4.89668E-1,-6.5162235E-1,-9.1304886E-1,-5.6716897E-2,-1.3059621E0,-7.1524255E-2,3.7328396E-2,2.9649919E-2,2.3504661E-2,1.7596247E-2,1.0644779E-2,7.2927894E-3,3.006473E-3,-3.3687856E-3,-8.111685E-3,-1.279514E-2,-2.1609623E-2,-2.574704E-2,-3.0286506E-2,-3.585666E-2,-4.18678E-2,-4.767053E-2,-6.332143E-2,-6.709418E-2],"categories":[],"categories_nodes":[],"categories_segments":[],"categories_sizes":[],"default_left":[0,0,0,0,0,0,0,0,0,0,0,0,0,0,0,0,0,0,0,0,0,0,0,0,0,0,0,0,0,0,0,0,0,0,0,0,0,0,0,0,0,0,0,0,0],"id":2,"left_children":[1,3,5,7,9,11,13,-1,-1,15,17,19,21,23,25,-1,27,29,31,33,35,37,39,41,-1,43,-1,-1,-1,-1,-1,-1,-1,-1,-1,-1,-1,-1,-1,-1,-1,-1,-1,-1,-1],"loss_changes":[5.0998426E4,6.704045E3,7.4168555E3,6.1954297E2,4.7926733E2,6.63348E2,4.9996094E2,0E0,0E0,1.1670044E2,4.8049988E1,8.235805E1,2.4665894E1,4.12417E1,3.840039E1,0E0,1.1696655E1,8.226929E0,1.9111176E0,1.8749096E1,2.5655212E0,1.9337769E0,7.5877686E0,6.963135E0,0E0,3.307129E0,0E0,0E0,0E0,0E0,0E0,0E0,0E0,0E0,0E0,0E0,0E0,0E0,0E0,0E0,0E0,0E0,0E0,0E0,0E0],"parents":[2147483647,0,0,1,1,2,2,3,3,4,4,5,5,6,6,9,9,10,10,11,11,12,12,13,13,14,14,16,16,17,17,18,18,19,19,20,20,21,21,22,22,23,23,25,25],"right_children":[2,4,6,8,10,12,14,-1,-1,16,18,20,22,24,26,-1,28,30,32,34,36,38,40,42,-1,44,-1,-1,-1,-1,-1,-1,-1,-1,-1,-1,-1,-1,-1,-1,-1,-1,-1,-1,-1],"split_conditions":[6E0,2.236068E0,1.4764823E1,1.4142135E0,3.6055512E0,1.0440307E1,2.1213203E1,8.600438E-2,6.354261E-2,2.828427E0,5E0,8.602325E0,1.2E1,1.8439089E1,3.6796738E1,4.8814666E-2,3E0,4E0,5.656854E0,7E0,9E0,1.1E1,1.3341664E1,1.6E1,-5.6716897E-2,2.6305893E1,-7.1524255E-2,3.7328396E-2,2.9649919E-2,2.3504661E-2,1.7596247E-2,1.0644779E-2,7.2927894E-3,3.006473E-3,-3.3687856E-3,-8.111685E-3,-1.279514E-2,-2.1609623E-2,-2.574704E-2,-3.0286506E-2,-3.585666E-2,-4.18678E-2,-4.767053E-2,-6.332143E-2,-6.709418E-2],"split_indices":[0,0,0,0,0,0,0,0,0,0,0,0,0,0,0,0,0,0,0,0,0,0,0,0,0,0,0,0,0,0,0,0,0,0,0,0,0,0,0,0,0,0,0,0,0],"split_type":[0,0,0,0,0,0,0,0,0,0,0,0,0,0,0,0,0,0,0,0,0,0,0,0,0,0,0,0,0,0,0,0,0,0,0,0,0,0,0,0,0,0,0,0,0],"sum_hessian":[5.2639074E4,2.3735531E4,2.8903541E4,1.3301088E4,1.0434443E4,1.1598177E4,1.7305363E4,8.451777E3,4.849311E3,4.473453E3,5.96099E3,7.4473477E3,4.1508296E3,3.843531E3,1.3461833E4,1.370656E3,3.1027974E3,3.320005E3,2.640985E3,4.949073E3,2.4982742E3,1.483494E3,2.6673357E3,2.539487E3,1.304044E3,3.524667E3,9.937166E3,6.466202E2,2.456177E3,7.8399445E2,2.5360105E3,2.0945515E3,5.464336E2,1.8277645E3,3.1213088E3,3.464015E2,2.1518728E3,4.5861362E2,1.0248805E3,1.5745586E3,1.0927771E3,8.9075116E2,1.648736E3,1.695227E3,1.8294398E3],"tree_param":{"num_deleted":"0","num_feature":"2","num_nodes":"45","size_leaf_vector":"1"}},{"base_weights":[4.5120955E-4,1.0201544E0,-8.645065E-1,1.4518474E0,4.6269605E-1,-2.6286018E-1,-1.2764902E0,7.9997234E-2,5.954368E-2,6.489163E-1,2.739753E-1,-9.2436045E-2,-5.722513E-1,-9.567831E-1,-1.3688812E0,4.5760613E-2,5.5351967E-1,3.3645567E-1,2.1420471E-1,-2.675717E-2,-2.2401762E-1,-4.5520934E-1,-6.373225E-1,-8.8457596E-1,-1.0957853E0,-1.275637E0,-6.9990225E-2,3.4092065E-2,2.6374808E-2,1.6017294E-2,1.7510401E-2,1.1422334E-2,7.9649575E-3,-4.4540808E-5,-4.271274E-3,-9.772419E-3,-1.4147112E-2,-1.9177949E-2,-2.388843E-2,-3.020232E-2,-3.421239E-2,-4.0694952E-2,-4.6118256E-2,-5.2127033E-2,-5.637435E-2,-6.1733443E-2,-6.514632E-2],"categories":[],"categories_nodes":[],"categories_segments":[],"categories_sizes":[],"default_left":[0,0,0,0,0,0,0,0,0,0,0,0,0,0,0,0,0,0,0,0,0,0,0,0,0,0,0,0,0,0,0,0,0,0,0,0,0,0,0,0,0,0,0,0,0,0,0],"id":3,"left_children":[1,3,5,7,9,11,13,-1,-1,15,17,19,21,23,25,-1,27,29,31,33,35,37,39,41,43,45,-1,-1,-1,-1,-1,-1,-1,-1,-1,-1,-1,-1,-1,-1,-1,-1,-1,-1,-1,-1,-1],"loss_changes":[4.6180152E4,5.7820957E3,7.021467E3,5.214863E2,3.684331E2,6.0712274E2,4.9535938E2,0E0,0E0,1.3358936E2,1.9388733E1,6.417401E1,3.0858765E1,3.690088E1,3.581836E1,0E0,1.2626831E1,4.5187378E-1,2.0483704E0,7.5191374E0,4.107033E0,2.1845093E0,3.6871338E0,5.8952637E0,9.94751E-1,2.0356445E0,0E0,0E0,0E0,0E0,0E0,0E0,0E0,0E0,0E0,0E0,0E0,0E0,0E0,0E0,0E0,0E0,0E0,0E0,0E0,0E0,0E0],"parents":[2147483647,0,0,1,1,2,2,3,3,4,4,5,5,6,6,9,9,10,10,11,11,12,12,13,13,14,14,16,16,17,17,18,18,19,19,20,20,21,21,22,22,23,23,24,24,25,25],"right_children":[2,4,6,8,10,12,14,-1,-1,16,18,20,22,24,26,-1,28,30,32,34,36,38,40,42,44,46,-1,-1,-1,-1,-1,-1,-1,-1,-1,-1,-1,-1,-1,-1,-1,-1,-1,-1,-1,-1,-1],"split_conditions":[6E0,2.236068E0,1.4764823E1,1.4142135E0,4E0,1.0440307E1,2.1213203E1,7.9997234E-2,5.954368E-2,2.828427E0,5E0,8.602325E0,1.2E1,1.8439089E1,3.522783E1,4.5760613E-2,3E0,4.1231055E0,5.656854E0,7.81025E0,1E1,1.0816654E1,1.3341664E1,1.6E1,1.9416489E1,2.5079872E1,-6.9990225E-2,3.4092065E-2,2.6374808E-2,1.6017294E-2,1.7510401E-2,1.1422334E-2,7.9649575E-3,-4.4540808E-5,-4.271274E-3,-9.772419E-3,-1.4147112E-2,-1.9177949E-2,-2.388843E-2,-3.020232E-2,-3.421239E-2,-4.0694952E-2,-4.6118256E-2,-5.2127033E-2,-5.637435E-2,-6.1733443E-2,-6.514632E-2],"split_indices":[0,0,0,0,0,0,0,0,0,0,0,0,0,0,0,0,0,0,0,0,0,0,0,0,0,0,0,0,0,0,0,0,0,0,0,0,0,0,0,0,0,0,0,0,0,0,0],"split_type":[0,0,0,0,0,0,0,0,0,0,0,0,0,0,0,0,0,0,0,0,0,0,0,0,0,0,0,0,0,0,0,0,0,0,0,0,0,0,0,0,0,0,0,0,0,0,0],"sum_hessian":[5.235644E4,2.4028701E4,2.832774E4,1.3541006E4,1.0487696E4,1.1514304E4,1.6813438E4,8.635441E3,4.9055645E3,5.277592E3,5.2101045E3,7.4254097E3,4.0888936E3,3.7720613E3,1.3041376E4,1.3897014E3,3.8878901E3,2.5450469E3,2.6650576E3,4.953885E3,2.4715254E3,1.4638672E3,2.6250264E3,2.487334E3,1.2847272E3,3.258404E3,9.782973E3,6.512719E2,3.2366184E3,1.183251E3,1.3617958E3,2.1136394E3,5.5141815E2,3.438774E3,1.5151105E3,1.667409E3,8.041163E2,3.5484546E2,1.1090217E3,1.5440023E3,1.0810242E3,8.744304E2,1.6129036E3,4.921026E2,7.9262463E2,1.3211967E3,1.9372073E3],"tree_param":{"num_deleted":"0","num_feature":"2","num_nodes":"47","size_leaf_vector":"1"}},{"base_weights":[-1.09386E-3,9.5938176E-1,-8.406504E-1,1.3608944E0,4.384213E-1,-2.5504258E-1,-1.2494624E0,7.4994504E-2,1.1175715E0,6.199491E-1,2.5250307E-1,-9.3898095E-2,-5.511332E-1,-9.295132E-1,-1.3418705E0,5.7494152E-2,5.53007E-2,8.029165E-1,5.0394577E-1,3.2134676E-1,1.8655223E-1,-2.083735E-2,-2.05155E-1,-4.728458E-1,-6.453256E-1,-8.588437E-1,-1.0663848E0,-1.2533101E0,-6.867602E-2,4.3033354E-2,3.3708617E-2,2.602208E-2,2.261391E-2,1.6647438E-2,1.4768617E-2,1.0145112E-2,6.17855E-3,1.6906466E-3,-2.1382119E-3,-8.801918E-3,-1.3035473E-2,-2.1986427E-2,-2.6748741E-2,-2.9975211E-2,-3.609261E-2,-3.9215606E-2,-4.4936422E-2,-5.1166274E-2,-5.458654E-2,-6.146088E-2,-6.4596035E-2],"categories":[],"categories_nodes":[],"categories_segments":[],"categories_sizes":[],"default_left":[0,0,0,0,0,0,0,0,0,0,0,0,0,0,0,0,0,0,0,0,0,0,0,0,0,0,0,0,0,0,0,0,0,0,0,0,0,0,0,0,0,0,0,0,0,0,0,0,0,0,0],"id":4,"left_children":[1,3,5,7,9,11,13,-1,15,17,19,21,23,25,27,-1,-1,29,31,33,35,37,39,41,43,45,47,49,-1,-1,-1,-1,-1,-1,-1,-1,-1,-1,-1,-1,-1,-1,-1,-1,-1,-1,-1,-1,-1,-1,-1],"loss_changes":[4.2070543E4,5.089379E3,6.6643496E3,4.630879E2,3.57349E2,5.460702E2,4.8344727E2,0E0,5.957031E-1,1.1334082E2,2.3707977E1,6.0253944E1,2.9439697E1,3.465088E1,3.392578E1,0E0,0E0,1.4867432E1,2.5621948E0,6.730957E-1,2.7305374E0,5.364876E0,4.7070923E0,4.30484E0,5.9776E0,6.519165E0,2.4475098E-1,1.5371094E0,0E0,0E0,0E0,0E0,0E0,0E0,0E0,0E0,0E0,0E0,0E0,0E0,0E0,0E0,0E0,0E0,0E0,0E0,0E0,0E0,0E0,0E0,0E0],"parents":[2147483647,0,0,1,1,2,2,3,3,4,4,5,5,6,6,8,8,9,9,10,10,11,11,12,12,13,13,14,14,17,17,18,18,19,19,20,20,21,21,22,22,23,23,24,24,25,25,26,26,27,27],"right_children":[2,4,6,8,10,12,14,-1,16,18,20,22,24,26,28,-1,-1,30,32,34,36,38,40,42,44,46,48,50,-1,-1,-1,-1,-1,-1,-1,-1,-1,-1,-1,-1,-1,-1,-1,-1,-1,-1,-1,-1,-1,-1,-1],"split_conditions":[6E0,2.236068E0,1.4764823E1,1.4142135E0,4E0,1.0440307E1,2.1213203E1,7.4994504E-2,2E0,3E0,5E0,8.246211E0,1.2529964E1,1.8439089E1,3.6796738E1,5.7494152E-2,5.53007E-2,2.828427E0,3.6055512E0,4.2426405E0,5.656854E0,6.4031243E0,9.848858E0,1.2E1,1.3928389E1,1.6E1,1.9416489E1,2.8442924E1,-6.867602E-2,4.3033354E-2,3.3708617E-2,2.602208E-2,2.261391E-2,1.6647438E-2,1.4768617E-2,1.0145112E-2,6.17855E-3,1.6906466E-3,-2.1382119E-3,-8.801918E-3,-1.3035473E-2,-2.1986427E-2,-2.6748741E-2,-2.9975211E-2,-3.609261E-2,-3.9215606E-2,-4.4936422E-2,-5.1166274E-2,-5.458654E-2,-6.146088E-2,-6.4596035E-2],"split_indices":[0,0,0,0,0,0,0,0,0,0,0,0,0,0,0,0,0,0,0,0,0,0,0,0,0,0,0,0,0,0,0,0,0,0,0,0,0,0,0,0,0,0,0,0,0,0,0,0,0,0,0],"split_type":[0,0,0,0,0,0,0,0,0,0,0,0,0,0,0,0,0,0,0,0,0,0,0,0,0,0,0,0,0,0,0,0,0,0,0,0,0,0,0,0,0,0,0,0,0,0,0,0,0,0,0],"sum_hessian":[5.2170523E4,2.433289E4,2.7837635E4,1.3740925E4,1.0591966E4,1.1444888E4,1.6392746E4,8.74199E3,4.998934E3,5.358081E3,5.233885E3,7.4121914E3,4.0326965E3,3.6760454E3,1.2716701E4,1.2910314E3,3.7079028E3,2.0766863E3,3.281395E3,2.5588848E3,2.675E3,4.4748267E3,2.9373647E3,2.2055698E3,1.8271266E3,2.4291182E3,1.2469271E3,3.358827E3,9.357874E3,1.429689E3,6.469974E2,2.4804062E3,8.009887E2,1.7606416E3,7.9824304E2,2.1219236E3,5.530763E2,1.2811538E3,3.1936726E3,1.9300007E3,1.0073639E3,1.4439594E3,7.6161053E2,1.1483619E3,6.7876465E2,8.539774E2,1.5751407E3,4.773515E2,7.695756E2,2.0884768E3,1.2703501E3],"tree_param":{"num_deleted":"0","num_feature":"2","num_nodes":"51","size_leaf_vector":"1"}},{"base_weights":[-2.497516E-3,1.2766104E0,-8.97864E-1,1.673183E0,6.6248053E-1,-3.1818464E-1,-1.2156982E0,1.8647572E0,1.2846005E0,8.1504023E-1,3.715045E-1,-6.1941072E-2,-5.5206823E-1,-9.579353E-1,-1.2896197E0,1.00295685E-1,1.7406107E0,1.2950822E0,5.8972508E-2,9.250184E-1,6.570878E-1,4.0582922E-1,2.3421319E-1,1.10907234E-1,-1.5742493E-1,-4.7389635E-1,-7.023321E-1,-8.239075E-1,-1.0281028E0,-1.206981E0,-6.729879E-2,8.797874E-2,7.946295E-2,6.41553E-2,6.729857E-2,4.6878684E-2,4.320849E-2,3.199149E-2,4.2035088E-2,2.8214289E-2,1.910991E-2,6.852306E-3,1.4503218E-2,5.885059E-3,4.024769E-3,-4.342603E-3,-1.1842626E-2,-1.8980963E-2,-2.5720565E-2,-3.394561E-2,-3.593711E-2,-3.9591357E-2,-4.5133356E-2,-4.9748167E-2,-5.4057267E-2,-5.7409506E-2,-6.1653752E-2],"categories":[],"categories_nodes":[],"categories_segments":[],"categories_sizes":[],"default_left":[0,0,0,0,0,0,0,0,0,0,0,0,0,0,0,0,0,0,0,0,0,0,0,0,0,0,0,0,0,0,0,0,0,0,0,0,0,0,0,0,0,0,0,0,0,0,0,0,0,0,0,0,0,0,0,0,0],"id":5,"left_children":[1,3,5,7,9,11,13,15,17,19,21,23,25,27,29,-1,31,33,-1,35,37,39,41,43,45,47,49,51,53,55,-1,-1,-1,-1,-1,-1,-1,-1,-1,-1,-1,-1,-1,-1,-1,-1,-1,-1,-1,-1,-1,-1,-1,-1,-1,-1,-1],"loss_changes":[5.940485E4,5.2005703E3,5.6211523E3,9.636406E2,3.7178296E2,6.4760583E2,3.742539E2,1.4878906E2,3.1982422E0,9.490039E1,1.3500092E1,8.514339E1,6.602942E1,4.0492188E1,6.968555E1,0E0,1.0495117E1,6.435547E-1,0E0,1.6643066E0,6.6242676E0,8.421143E0,3.1044502E0,3.6986732E-1,1.8605545E1,1.401123E1,2.5421143E-1,3.114502E0,3.9890137E0,8.123047E0,0E0,0E0,0E0,0E0,0E0,0E0,0E0,0E0,0E0,0E0,0E0,0E0,0E0,0E0,0E0,0E0,0E0,0E0,0E0,0E0,0E0,0E0,0E0,0E0,0E0,0E0,0E0],"parents":[2147483647,0,0,1,1,2,2,3,3,4,4,5,5,6,6,7,7,8,8,9,9,10,10,11,11,12,12,13,13,14,14,16,16,17,17,19,19,20,20,21,21,22,22,23,23,24,24,25,25,26,26,27,27,28,28,29,29],"right_children":[2,4,6,8,10,12,14,16,18,20,22,24,26,28,30,-1,32,34,-1,36,38,40,42,44,46,48,50,52,54,56,-1,-1,-1,-1,-1,-1,-1,-1,-1,-1,-1,-1,-1,-1,-1,-1,-1,-1,-1,-1,-1,-1,-1,-1,-1,-1,-1],"split_conditions":[6E0,3E0,1.3601471E1,2E0,4.472136E0,9E0,1.9313208E1,1E0,2.828427E0,4E0,5.3851647E0,7E0,1.2E1,1.5033297E1,4.1E1,1.00295685E-1,1.4142135E0,2.236068E0,5.8972508E-2,3.6055512E0,4.2426405E0,5E0,5.656854E0,6.4031243E0,8E0,9.486833E0,1.2369317E1,1.5E1,1.8E1,2.3021729E1,-6.729879E-2,8.797874E-2,7.946295E-2,6.41553E-2,6.729857E-2,4.6878684E-2,4.320849E-2,3.199149E-2,4.2035088E-2,2.8214289E-2,1.910991E-2,6.852306E-3,1.4503218E-2,5.885059E-3,4.024769E-3,-4.342603E-3,-1.1842626E-2,-1.8980963E-2,-2.5720565E-2,-3.394561E-2,-3.593711E-2,-3.9591357E-2,-4.5133356E-2,-4.9748167E-2,-5.4057267E-2,-5.7409506E-2,-6.1653752E-2],"split_indices":[1,1,1,1,1,1,1,1,1,1,1,1,1,1,1,0,1,1,0,1,1,1,1,1,1,1,1,1,1,1,0,0,0,0,0,0,0,0,0,0,0,0,0,0,0,0,0,0,0,0,0,0,0,0,0,0,0],"split_type":[0,0,0,0,0,0,0,0,0,0,0,0,0,0,0,0,0,0,0,0,0,0,0,0,0,0,0,0,0,0,0,0,0,0,0,0,0,0,0,0,0,0,0,0,0,0,0,0,0,0,0,0,0,0,0,0,0],"sum_hessian":[5.186772E4,2.1356992E4,3.0510727E4,1.2976033E4,8.38096E3,1.0805397E4,1.9705328E4,8.688658E3,4.2873755E3,5.4970415E3,2.8839182E3,5.1568267E3,5.648571E3,4.394772E3,1.5310556E4,4.0586946E3,4.6299634E3,3.8884453E3,3.989302E2,3.237793E3,2.2592483E3,2.3055442E3,5.783739E2,1.8349581E3,3.3218687E3,3.7183335E3,1.9302373E3,1.5145508E3,2.8802214E3,6.2168203E3,9.093735E3,4.104991E3,5.249721E2,3.1688967E3,7.195485E2,2.6720483E3,5.657446E2,2.069243E3,1.9000551E2,2.9624026E2,2.009304E3,2.1236526E2,3.6600867E2,1.4975404E3,3.3741766E2,1.76009E3,1.5617787E3,1.1207495E3,2.597584E3,8.127202E2,1.1175171E3,1.0840497E3,4.3050107E2,1.784855E3,1.0953665E3,1.9249226E3,4.2918975E3],"tree_param":{"num_deleted":"0","num_feature":"2","num_nodes":"57","size_leaf_vector":"1"}},{"base_weights":[-3.3675637E-3,1.2010432E0,-8.702434E-1,1.5835412E0,6.479483E-1,-3.0785438E-1,-1.1945246E0,1.7691185E0,1.2408364E0,8.888164E-1,4.7619584E-1,-4.885895E-2,-5.1930124E-1,-9.723776E-1,-1.2773056E0,9.4177976E-2,8.273613E-2,7.389325E-2,6.039949E-2,5.292002E-2,8.669665E-1,6.1660945E-1,3.3658943E-1,1.0149271E-1,-1.3771884E-1,-4.2921185E-1,-6.704004E-1,-8.644671E-1,-1.0491537E0,-1.1986421E0,-6.617824E-2,4.3807518E-2,4.1119143E-2,3.015448E-2,3.2435235E-2,1.815637E-2,1.2260896E-2,5.5579483E-3,3.845383E-3,-4.4177016E-3,-1.0145995E-2,-1.6918464E-2,-2.3943424E-2,-3.2247666E-2,-3.493342E-2,-3.902818E-2,-4.606081E-2,-4.8991602E-2,-5.388957E-2,-5.8633238E-2,-6.139636E-2],"categories":[],"categories_nodes":[],"categories_segments":[],"categories_sizes":[],"default_left":[0,0,0,0,0,0,0,0,0,0,0,0,0,0,0,0,0,0,0,0,0,0,0,0,0,0,0,0,0,0,0,0,0,0,0,0,0,0,0,0,0,0,0,0,0,0,0,0,0,0,0],"id":6,"left_children":[1,3,5,7,9,11,13,15,17,19,21,23,25,27,29,-1,-1,-1,-1,-1,31,33,35,37,39,41,43,45,47,49,-1,-1,-1,-1,-1,-1,-1,-1,-1,-1,-1,-1,-1,-1,-1,-1,-1,-1,-1,-1,-1],"loss_changes":[5.3718094E4,4.554455E3,5.4557305E3,8.073496E2,3.6383887E2,5.992549E2,3.4770703E2,1.0495508E2,3.30542E1,1.2658447E1,1.0059155E2,6.574086E1,8.171924E1,4.1806152E1,4.870508E1,0E0,0E0,0E0,0E0,0E0,6.1083984E-1,7.206421E-1,6.168579E0,4.2587852E-1,9.935825E0,1.687555E1,1.166687E0,9.512817E0,4.915039E0,2.4614258E0,0E0,0E0,0E0,0E0,0E0,0E0,0E0,0E0,0E0,0E0,0E0,0E0,0E0,0E0,0E0,0E0,0E0,0E0,0E0,0E0,0E0],"parents":[2147483647,0,0,1,1,2,2,3,3,4,4,5,5,6,6,7,7,8,8,9,9,10,10,11,11,12,12,13,13,14,14,20,20,21,21,22,22,23,23,24,24,25,25,26,26,27,27,28,28,29,29],"right_children":[2,4,6,8,10,12,14,16,18,20,22,24,26,28,30,-1,-1,-1,-1,-1,32,34,36,38,40,42,44,46,48,50,-1,-1,-1,-1,-1,-1,-1,-1,-1,-1,-1,-1,-1,-1,-1,-1,-1,-1,-1,-1,-1],"split_conditions":[6E0,2.828427E0,1.4E1,1.4142135E0,4E0,8.602325E0,2.1213203E1,1E0,2E0,3E0,5E0,7E0,1.1661903E1,1.627882E1,4.2E1,9.4177976E-2,8.273613E-2,7.389325E-2,6.039949E-2,5.292002E-2,3.6055512E0,4.1231055E0,5.3851647E0,6.3245554E0,8E0,9.486833E0,1.3E1,1.5E1,1.8E1,2.9E1,-6.617824E-2,4.3807518E-2,4.1119143E-2,3.015448E-2,3.2435235E-2,1.815637E-2,1.2260896E-2,5.5579483E-3,3.845383E-3,-4.4177016E-3,-1.0145995E-2,-1.6918464E-2,-2.3943424E-2,-3.2247666E-2,-3.493342E-2,-3.902818E-2,-4.606081E-2,-4.8991602E-2,-5.388957E-2,-5.8633238E-2,-6.139636E-2],"split_indices":[1,1,1,1,1,1,1,1,1,1,1,1,1,1,1,0,0,0,0,0,1,1,1,1,1,1,1,1,1,1,0,0,0,0,0,0,0,0,0,0,0,0,0,0,0,0,0,0,0,0,0],"split_type":[0,0,0,0,0,0,0,0,0,0,0,0,0,0,0,0,0,0,0,0,0,0,0,0,0,0,0,0,0,0,0,0,0,0,0,0,0,0,0,0,0,0,0,0,0,0,0,0,0,0,0],"sum_hessian":[5.1448434E4,2.153206E4,2.9916373E4,1.2728019E4,8.804043E3,1.0942007E4,1.8974367E4,8.254163E3,4.4738555E3,3.6629277E3,5.141115E3,4.9185913E3,6.0234155E3,5.1545625E3,1.3819805E4,4.1185376E3,4.1356255E3,5.391595E2,3.9346958E3,4.126649E2,3.250263E3,2.561444E3,2.5796711E3,1.8270557E3,3.0915356E3,3.7759387E3,2.2474768E3,2.1479006E3,3.0066616E3,5.1274775E3,8.692327E3,2.679629E3,5.7063403E2,1.8161803E3,7.4526373E2,1.9967577E3,5.829135E2,1.3089045E3,5.1815125E2,1.760777E3,1.3307587E3,1.3372911E3,2.4386475E3,1.1952887E3,1.0521881E3,8.7256647E2,1.2753342E3,8.8926776E2,2.1173938E3,2.7389373E3,2.3885403E3],"tree_param":{"num_deleted":"0","num_feature":"2","num_nodes":"51","size_leaf_vector":"1"}},{"base_weights":[-2.455537E-3,6.693268E-1,-9.499212E-1,1.1244743E0,1.7923227E-1,-5.041256E-1,-1.2470117E0,6.455725E-2,8.971591E-1,3.605592E-1,2.6370121E-2,-2.824937E-1,-6.7478937E-1,-1.1007508E0,-1.2965603E0,4.7344677E-2,3.62065E-2,4.5792997E-1,2.693017E-1,1.4574072E-1,-3.6867358E-2,-2.0806904E-1,-4.0054584E-1,-5.670817E-1,-7.9052985E-1,-9.9914265E-1,-5.788512E-2,-6.1110485E-2,-6.526451E-2,2.8902968E-2,2.1306634E-2,1.6773855E-2,1.2421419E-2,7.898765E-3,4.951699E-3,1.5703168E-4,-2.9623732E-3,-9.331393E-3,-1.2370159E-2,-1.71379E-2,-2.1319492E-2,-2.6322767E-2,-3.1274583E-2,-3.7645005E-2,-4.116086E-2,-4.7233924E-2,-5.1588804E-2],"categories":[],"categories_nodes":[],"categories_segments":[],"categories_sizes":[],"default_left":[0,0,0,0,0,0,0,0,0,0,0,0,0,0,0,0,0,0,0,0,0,0,0,0,0,0,0,0,0,0,0,0,0,0,0,0,0,0,0,0,0,0,0,0,0,0,0],"id":7,"left_children":[1,3,5,7,9,11,13,-1,15,17,19,21,23,25,27,-1,-1,29,31,33,35,37,39,41,43,45,-1,-1,-1,-1,-1,-1,-1,-1,-1,-1,-1,-1,-1,-1,-1,-1,-1,-1,-1,-1,-1],"loss_changes":[3.248254E4,6.6608096E3,2.8035E3,5.854199E2,3.985704E2,3.2014062E2,9.064453E1,0E0,5.5705566E1,5.832245E1,5.891078E1,3.230188E1,5.9188232E1,1.7485352E1,4.5595703E0,0E0,0E0,1.1903259E1,4.6099396E0,1.5286865E0,4.568307E0,1.862236E0,1.980835E0,5.559265E0,2.213501E0,1.0948486E0,0E0,0E0,0E0,0E0,0E0,0E0,0E0,0E0,0E0,0E0,0E0,0E0,0E0,0E0,0E0,0E0,0E0,0E0,0E0,0E0,0E0],"parents":[2147483647,0,0,1,1,2,2,3,3,4,4,5,5,6,6,8,8,9,9,10,10,11,11,12,12,13,13,14,14,17,17,18,18,19,19,20,20,21,21,22,22,23,23,24,24,25,25],"right_children":[2,4,6,8,10,12,14,-1,16,18,20,22,24,26,28,-1,-1,30,32,34,36,38,40,42,44,46,-1,-1,-1,-1,-1,-1,-1,-1,-1,-1,-1,-1,-1,-1,-1,-1,-1,-1,-1,-1,-1],"split_conditions":[8.944272E0,2.828427E0,1.8439089E1,1.4142135E0,5E0,1.2E1,2.915476E1,6.455725E-2,2.236068E0,3.6055512E0,6E0,1.0440307E1,1.4764823E1,2.1213203E1,3.6796738E1,4.7344677E-2,3.62065E-2,3E0,4E0,5.656854E0,7E0,1E1,1.1E1,1.3341664E1,1.6155495E1,1.9416489E1,-5.788512E-2,-6.1110485E-2,-6.526451E-2,2.8902968E-2,2.1306634E-2,1.6773855E-2,1.2421419E-2,7.898765E-3,4.951699E-3,1.5703168E-4,-2.9623732E-3,-9.331393E-3,-1.2370159E-2,-1.71379E-2,-2.1319492E-2,-2.6322767E-2,-3.1274583E-2,-3.7645005E-2,-4.116086E-2,-4.7233924E-2,-5.1588804E-2],"split_indices":[0,0,0,0,0,0,0,0,0,0,0,0,0,0,0,0,0,0,0,0,0,0,0,0,0,0,0,0,0,0,0,0,0,0,0,0,0,0,0,0,0,0,0,0,0,0,0],"split_type":[0,0,0,0,0,0,0,0,0,0,0,0,0,0,0,0,0,0,0,0,0,0,0,0,0,0,0,0,0,0,0,0,0,0,0,0,0,0,0,0,0,0,0,0,0,0,0],"sum_hessian":[5.103181E4,2.986026E4,2.1171549E4,1.5481447E4,1.43788125E4,8.467876E3,1.2703673E4,8.929521E3,6.5519263E3,6.5764224E3,7.80239E3,3.6850085E3,4.782867E3,3.2204717E3,9.483201E3,5.0856626E3,1.4662637E3,3.1796987E3,3.3967236E3,2.7015288E3,5.1008613E3,2.261827E3,1.4231818E3,2.480459E3,2.3024082E3,1.163391E3,2.0570806E3,1.01128455E3,8.471917E3,6.618955E2,2.5178032E3,8.1088354E2,2.58584E3,2.1388787E3,5.626501E2,1.8301096E3,3.2707517E3,1.4675851E3,7.942418E2,4.4420026E2,9.789815E2,1.4688387E3,1.0116202E3,1.0814597E3,1.2209485E3,4.471165E2,7.162745E2],"tree_param":{"num_deleted":"0","num_feature":"2","num_nodes":"47","size_leaf_vector":"1"}},{"base_weights":[-4.8458027E-3,1.0887322E0,-8.3345383E-1,1.448679E0,5.669098E-1,-3.0779698E-1,-1.151914E0,1.6229365E0,1.125167E0,6.919479E-1,2.6466683E-1,-6.613502E-2,-5.078314E-1,-9.3613416E-1,-1.2349267E0,8.609474E-2,7.620578E-2,6.746742E-2,1.094193E0,7.906706E-1,5.521862E-1,1.46113625E-2,1.9728167E-1,6.2440153E-2,-1.4255978E-1,-4.2829302E-1,-6.440655E-1,-8.2998747E-1,-1.0121801E0,-1.1525478E0,-6.413036E-2,5.41322E-2,5.7127494E-2,4.6558436E-2,3.8657714E-2,2.7967874E-2,2.4714587E-2,1.0588481E-2,8.140214E-3,3.4230412E-3,1.8023587E-3,-4.4546598E-3,-1.0628653E-2,-1.6445102E-2,-2.3181047E-2,-3.0402878E-2,-3.3501454E-2,-3.762397E-2,-4.4166572E-2,-4.8416954E-2,-5.2477986E-2,-5.62297E-2,-5.9325438E-2],"categories":[],"categories_nodes":[],"categories_segments":[],"categories_sizes":[],"default_left":[0,0,0,0,0,0,0,0,0,0,0,0,0,0,0,0,0,0,0,0,0,0,0,0,0,0,0,0,0,0,0,0,0,0,0,0,0,0,0,0,0,0,0,0,0,0,0,0,0,0,0,0,0],"id":8,"left_children":[1,3,5,7,9,11,13,15,17,19,21,23,25,27,29,-1,-1,-1,31,33,35,-1,37,39,41,43,45,47,49,51,-1,-1,-1,-1,-1,-1,-1,-1,-1,-1,-1,-1,-1,-1,-1,-1,-1,-1,-1,-1,-1,-1,-1],"loss_changes":[4.6030914E4,4.112244E3,4.8376074E3,7.286914E2,3.376997E2,5.27105E2,3.2121094E2,7.971484E1,3.0045898E1,8.681494E1,4.804352E0,4.8547264E1,6.4371216E1,3.9553223E1,4.9560547E1,0E0,0E0,0E0,9.941406E-1,8.394775E0,8.1170654E-1,0E0,3.4665298E-1,2.9026508E-1,1.1579586E1,1.3084351E1,1.6467285E0,7.994385E0,3.7541504E0,3.1967773E0,0E0,0E0,0E0,0E0,0E0,0E0,0E0,0E0,0E0,0E0,0E0,0E0,0E0,0E0,0E0,0E0,0E0,0E0,0E0,0E0,0E0,0E0,0E0],"parents":[2147483647,0,0,1,1,2,2,3,3,4,4,5,5,6,6,7,7,8,8,9,9,10,10,11,11,12,12,13,13,14,14,18,18,19,19,20,20,22,22,23,23,24,24,25,25,26,26,27,27,28,28,29,29],"right_children":[2,4,6,8,10,12,14,16,18,20,22,24,26,28,30,-1,-1,-1,32,34,36,-1,38,40,42,44,46,48,50,52,-1,-1,-1,-1,-1,-1,-1,-1,-1,-1,-1,-1,-1,-1,-1,-1,-1,-1,-1,-1,-1,-1,-1],"split_conditions":[6E0,2.828427E0,1.4E1,1.4142135E0,5E0,8.602325E0,2.1213203E1,1E0,2E0,4E0,5.0990195E0,7E0,1.1661903E1,1.627882E1,4.1E1,8.609474E-2,7.620578E-2,6.746742E-2,2.236068E0,3E0,4.472136E0,1.46113625E-2,5.8309517E0,6.4031243E0,8E0,9.055386E0,1.2369317E1,1.5E1,1.8439089E1,2.9E1,-6.413036E-2,5.41322E-2,5.7127494E-2,4.6558436E-2,3.8657714E-2,2.7967874E-2,2.4714587E-2,1.0588481E-2,8.140214E-3,3.4230412E-3,1.8023587E-3,-4.4546598E-3,-1.0628653E-2,-1.6445102E-2,-2.3181047E-2,-3.0402878E-2,-3.3501454E-2,-3.762397E-2,-4.4166572E-2,-4.8416954E-2,-5.2477986E-2,-5.62297E-2,-5.9325438E-2],"split_indices":[1,1,1,1,1,1,1,1,1,1,1,1,1,1,1,0,0,0,1,1,1,0,1,1,1,1,1,1,1,1,0,0,0,0,0,0,0,0,0,0,0,0,0,0,0,0,0,0,0,0,0,0,0],"split_type":[0,0,0,0,0,0,0,0,0,0,0,0,0,0,0,0,0,0,0,0,0,0,0,0,0,0,0,0,0,0,0,0,0,0,0,0,0,0,0,0,0,0,0,0,0,0,0,0,0,0,0,0,0],"sum_hessian":[5.0796477E4,2.1897E4,2.8899477E4,1.295738E4,8.93962E3,1.0903652E4,1.7995824E4,8.418693E3,4.538687E3,6.322647E3,2.6169727E3,4.938623E3,5.965029E3,5.0031416E3,1.2992683E4,4.1982134E3,4.22048E3,5.457963E2,3.9928906E3,3.7026025E3,2.6200444E3,1.8549598E3,7.620128E2,1.8412059E3,3.0974172E3,3.7688066E3,2.1962222E3,2.093249E3,2.9098928E3,4.772413E3,8.220269E3,3.2420002E3,7.5089026E2,4.046614E2,3.2979412E3,2.3235667E3,2.9647784E2,5.3292645E2,2.2908638E2,1.4979135E3,3.4329245E2,1.7575288E3,1.3398884E3,9.910143E2,2.7777925E3,9.3035876E2,1.2658634E3,8.595058E2,1.233743E3,1.3515842E3,1.5583085E3,2.636434E3,2.1359792E3],"tree_param":{"num_deleted":"0","num_feature":"2","num_nodes":"53","size_leaf_vector":"1"}},{"base_weights":[-1.8961226E-3,5.674423E-1,-9.5945954E-1,1.0249358E0,1.1928904E-1,-5.3393936E-1,-1.2056718E0,5.8908876E-2,8.1729054E-1,2.608079E-1,-5.646696E-2,-3.9912027E-1,-7.2229683E-1,-1.0302805E0,-1.2525637E0,8.6469734E-1,3.2495108E-2,3.6316687E-1,1.7350942E-1,-4.098655E-3,-1.3167048E-1,-3.1833628E-1,-4.977402E-1,-6.617672E-1,-7.818771E-1,-9.450798E-1,-5.488048E-2,-5.8560945E-2,-6.338962E-2,4.546817E-2,4.2455357E-2,2.3605157E-2,1.7044604E-2,1.0006466E-2,7.03642E-3,4.34168E-3,-8.9190266E-4,-4.6951934E-3,-8.43751E-3,-1.1811767E-2,-1.8210545E-2,-2.3456296E-2,-2.582259E-2,-3.115104E-2,-3.45763E-2,-3.7164867E-2,-3.9811768E-2,-4.4705078E-2,-4.8795342E-2],"categories":[],"categories_nodes":[],"categories_segments":[],"categories_sizes":[],"default_left":[0,0,0,0,0,0,0,0,0,0,0,0,0,0,0,0,0,0,0,0,0,0,0,0,0,0,0,0,0,0,0,0,0,0,0,0,0,0,0,0,0,0,0,0,0,0,0,0,0],"id":9,"left_children":[1,3,5,7,9,11,13,-1,15,17,19,21,23,25,27,29,-1,31,33,35,37,39,41,43,45,47,-1,-1,-1,-1,-1,-1,-1,-1,-1,-1,-1,-1,-1,-1,-1,-1,-1,-1,-1,-1,-1,-1,-1],"loss_changes":[2.7413803E4,6.465335E3,1.9637129E3,4.9557422E2,3.9626468E2,1.7427441E2,9.638867E1,0E0,5.2044434E1,7.879767E1,2.7988003E1,3.1778442E1,9.82019E0,1.3367432E1,1.01171875E1,2.822998E0,0E0,9.694031E0,4.1298676E0,5.2369466E0,4.0694847E0,8.2239685E0,7.232361E-1,1.2161255E0,2.052002E-1,8.807373E-1,0E0,0E0,0E0,0E0,0E0,0E0,0E0,0E0,0E0,0E0,0E0,0E0,0E0,0E0,0E0,0E0,0E0,0E0,0E0,0E0,0E0,0E0,0E0],"parents":[2147483647,0,0,1,1,2,2,3,3,4,4,5,5,6,6,8,8,9,9,10,10,11,11,12,12,13,13,14,14,15,15,17,17,18,18,19,19,20,20,21,21,22,22,23,23,24,24,25,25],"right_children":[2,4,6,8,10,12,14,-1,16,18,20,22,24,26,28,30,-1,32,34,36,38,40,42,44,46,48,-1,-1,-1,-1,-1,-1,-1,-1,-1,-1,-1,-1,-1,-1,-1,-1,-1,-1,-1,-1,-1,-1,-1],"split_conditions":[1E1,2.828427E0,1.8439089E1,1.4142135E0,5.656854E0,1.3928389E1,2.6305893E1,5.8908876E-2,2.236068E0,4E0,8E0,1.2E1,1.6E1,2.1213203E1,3.6796738E1,2E0,3.2495108E-2,3E0,5E0,6E0,8.944272E0,1.0440307E1,1.2529964E1,1.4764823E1,1.6492422E1,1.9416489E1,-5.488048E-2,-5.8560945E-2,-6.338962E-2,4.546817E-2,4.2455357E-2,2.3605157E-2,1.7044604E-2,1.0006466E-2,7.03642E-3,4.34168E-3,-8.9190266E-4,-4.6951934E-3,-8.43751E-3,-1.1811767E-2,-1.8210545E-2,-2.3456296E-2,-2.582259E-2,-3.115104E-2,-3.45763E-2,-3.7164867E-2,-3.9811768E-2,-4.4705078E-2,-4.8795342E-2],"split_indices":[0,0,0,0,0,0,0,0,0,0,0,0,0,0,0,0,0,0,0,0,0,0,0,0,0,0,0,0,0,0,0,0,0,0,0,0,0,0,0,0,0,0,0,0,0,0,0,0,0],"split_type":[0,0,0,0,0,0,0,0,0,0,0,0,0,0,0,0,0,0,0,0,0,0,0,0,0,0,0,0,0,0,0,0,0,0,0,0,0,0,0,0,0,0,0,0,0,0,0,0,0],"sum_hessian":[5.028217E4,3.153363E4,1.8748541E4,1.5603569E4,1.5930062E4,6.873124E3,1.1875417E4,8.975212E3,6.6283574E3,8.82427E3,7.105792E3,4.0076917E3,2.8654324E3,2.5100347E3,9.365382E3,5.162185E3,1.4661722E3,4.0603171E3,4.763952E3,4.1894824E3,2.9163098E3,2.2053875E3,1.8023041E3,1.4273965E3,1.4380359E3,1.1146083E3,1.3954264E3,1.489106E3,7.876276E3,1.3207886E3,3.8413967E3,6.8586365E2,3.3744534E3,2.6262188E3,2.1377332E3,5.4922095E2,3.6402612E3,1.4465228E3,1.469787E3,7.927562E2,1.4126313E3,7.228987E2,1.0794055E3,6.2959375E2,7.9780273E2,4.043471E2,1.0336888E3,4.313295E2,6.8327875E2],"tree_param":{"num_deleted":"0","num_feature":"2","num_nodes":"49","size_leaf_vector":"1"}},{"base_weights":[-3.4053293E-3,1.0018553E0,-7.9908675E-1,1.4892727E0,6.6557294E-1,-3.24153E-1,-1.127994E0,8.049497E-2,1.3833975E0,8.6787015E-1,3.6907798E-1,-9.263697E-2,-5.162869E-1,-9.4110453E-1,-1.2063342E0,7.003418E-2,6.242348E-2,9.850342E-1,7.110825E-1,4.9786213E-1,2.416171E-1,3.3799816E-2,-1.6317184E-1,-4.2458916E-1,-6.361264E-1,-8.431105E-1,-1.0198636E0,-1.126755E0,-6.245137E-2,4.9863096E-2,4.3366436E-2,3.611695E-2,3.2828093E-2,2.3856284E-2,2.7391246E-2,1.2721345E-2,9.787404E-3,2.072175E-3,4.4954842E-5,-5.175711E-3,-1.1523229E-2,-1.7081125E-2,-2.312931E-2,-3.0620933E-2,-3.416639E-2,-3.863029E-2,-4.3783475E-2,-4.909416E-2,-5.236916E-2,-5.518478E-2,-5.73317E-2],"categories":[],"categories_nodes":[],"categories_segments":[],"categories_sizes":[],"default_left":[0,0,0,0,0,0,0,0,0,0,0,0,0,0,0,0,0,0,0,0,0,0,0,0,0,0,0,0,0,0,0,0,0,0,0,0,0,0,0,0,0,0,0,0,0,0,0,0,0,0,0],"id":10,"left_children":[1,3,5,7,9,11,13,-1,15,17,19,21,23,25,27,-1,-1,29,31,33,35,37,39,41,43,45,47,49,-1,-1,-1,-1,-1,-1,-1,-1,-1,-1,-1,-1,-1,-1,-1,-1,-1,-1,-1,-1,-1,-1,-1],"loss_changes":[3.982163E4,3.6043438E3,4.3406016E3,1.1244922E2,7.8048096E2,5.058025E2,2.3924805E2,0E0,9.420898E0,1.4143262E2,8.657312E1,4.6011448E1,6.801941E1,3.6603027E1,3.7884766E1,0E0,0E0,5.5043945E0,1.5587158E0,2.4594116E0,1.5109406E0,4.6473408E-1,1.3270355E1,1.094989E1,2.59375E0,4.301758E0,1.779541E0,5.9033203E-1,0E0,0E0,0E0,0E0,0E0,0E0,0E0,0E0,0E0,0E0,0E0,0E0,0E0,0E0,0E0,0E0,0E0,0E0,0E0,0E0,0E0,0E0,0E0],"parents":[2147483647,0,0,1,1,2,2,3,3,4,4,5,5,6,6,8,8,9,9,10,10,11,11,12,12,13,13,14,14,17,17,18,18,19,19,20,20,21,21,22,22,23,23,24,24,25,25,26,26,27,27],"right_children":[2,4,6,8,10,12,14,-1,16,18,20,22,24,26,28,-1,-1,30,32,34,36,38,40,42,44,46,48,50,-1,-1,-1,-1,-1,-1,-1,-1,-1,-1,-1,-1,-1,-1,-1,-1,-1,-1,-1,-1,-1,-1,-1],"split_conditions":[6E0,2E0,1.421267E1,1E0,4E0,9E0,2.3E1,8.049497E-2,1.4142135E0,3E0,5E0,7E0,1.1661903E1,1.7464249E1,4.2E1,7.003418E-2,6.242348E-2,2.828427E0,3.6055512E0,4.1231055E0,5.3851647E0,6.4031243E0,8E0,9.486833E0,1.3152946E1,1.5033297E1,1.9313208E1,2.9E1,-6.245137E-2,4.9863096E-2,4.3366436E-2,3.611695E-2,3.2828093E-2,2.3856284E-2,2.7391246E-2,1.2721345E-2,9.787404E-3,2.072175E-3,4.4954842E-5,-5.175711E-3,-1.1523229E-2,-1.7081125E-2,-2.312931E-2,-3.0620933E-2,-3.416639E-2,-3.863029E-2,-4.3783475E-2,-4.909416E-2,-5.236916E-2,-5.518478E-2,-5.73317E-2],"split_indices":[1,1,1,1,1,1,1,0,1,1,1,1,1,1,1,0,0,1,1,1,1,1,1,1,1,1,1,1,0,0,0,0,0,0,0,0,0,0,0,0,0,0,0,0,0,0,0,0,0,0,0],"split_type":[0,0,0,0,0,0,0,0,0,0,0,0,0,0,0,0,0,0,0,0,0,0,0,0,0,0,0,0,0,0,0,0,0,0,0,0,0,0,0,0,0,0,0,0,0,0,0,0,0,0,0],"sum_hessian":[4.97833E4,2.1994844E4,2.7788455E4,8.97818E3,1.3016664E4,1.1371003E4,1.6417453E4,4.1900894E3,4.788091E3,7.736296E3,5.280368E3,5.1576543E3,6.2133486E3,4.853023E3,1.156443E4,4.236014E3,5.520767E2,4.4246025E3,3.3116934E3,2.6251045E3,2.6552637E3,1.8471246E3,3.3105293E3,3.5225427E3,2.690806E3,2.1676653E3,2.685358E3,4.047453E3,7.5169766E3,4.0014465E3,4.2315625E2,2.734809E3,5.7688434E2,1.8626025E3,7.625019E2,2.0720554E3,5.832082E2,1.4986825E3,3.484422E2,1.7561619E3,1.5543676E3,1.109637E3,2.4129058E3,1.8004641E3,8.903419E2,6.9260297E2,1.4750623E3,1.1436539E3,1.5417039E3,1.899996E3,2.147457E3],"tree_param":{"num_deleted":"0","num_feature":"2","num_nodes":"51","size_leaf_vector":"1"}},{"base_weights":[-4.8553185E-3,4.9137643E-1,-9.459824E-1,9.2657626E-1,8.4603794E-2,-5.2621686E-1,-1.1698611E0,5.380369E-2,7.247716E-1,2.3039064E-1,-7.8929126E-2,-4.023283E-1,-6.6691303E-1,-1.007233E0,-1.2236964E0,3.844404E-2,2.8501485E-2,3.2905015E-1,1.4625403E-1,-1.171671E-2,-1.5617208E-1,-3.4352726E-1,-4.4770455E-1,-6.006541E-1,-3.658831E-2,-9.030293E-1,-5.3592283E-2,-5.6666363E-2,-6.1805528E-2,2.2549784E-2,1.5239607E-2,8.97264E-3,5.286285E-3,1.0321145E-3,-2.72059E-3,-5.5331793E-3,-9.2721945E-3,-1.7771201E-2,-1.5269071E-2,-2.0965215E-2,-2.3983682E-2,-2.8011797E-2,-3.1597674E-2,-4.301278E-2,-4.64089E-2],"categories":[],"categories_nodes":[],"categories_segments":[],"categories_sizes":[],"default_left":[0,0,0,0,0,0,0,0,0,0,0,0,0,0,0,0,0,0,0,0,0,0,0,0,0,0,0,0,0,0,0,0,0,0,0,0,0,0,0,0,0,0,0,0,0],"id":11,"left_children":[1,3,5,7,9,11,13,-1,15,17,19,21,23,25,27,-1,-1,29,31,33,35,37,39,41,-1,43,-1,-1,-1,-1,-1,-1,-1,-1,-1,-1,-1,-1,-1,-1,-1,-1,-1,-1,-1],"loss_changes":[2.2956953E4,5.697694E3,1.5942354E3,4.6833594E2,3.9666837E2,1.0265515E2,9.566016E1,0E0,4.4748047E1,7.2967834E1,4.0712242E1,8.230774E0,1.1434692E1,1.760205E1,7.921875E0,0E0,0E0,1.18368225E1,6.3711853E0,5.7960267E0,4.840004E0,5.145569E-1,1.40625E0,1.3821411E0,0E0,3.4387207E-1,0E0,0E0,0E0,0E0,0E0,0E0,0E0,0E0,0E0,0E0,0E0,0E0,0E0,0E0,0E0,0E0,0E0,0E0,0E0],"parents":[2147483647,0,0,1,1,2,2,3,3,4,4,5,5,6,6,8,8,9,9,10,10,11,11,12,12,13,13,14,14,17,17,18,18,19,19,20,20,21,21,22,22,23,23,25,25],"right_children":[2,4,6,8,10,12,14,-1,16,18,20,22,24,26,28,-1,-1,30,32,34,36,38,40,42,-1,44,-1,-1,-1,-1,-1,-1,-1,-1,-1,-1,-1,-1,-1,-1,-1,-1,-1,-1,-1],"split_conditions":[1.0440307E1,2.828427E0,1.8439089E1,1.4142135E0,5.656854E0,1.3928389E1,2.8442924E1,5.380369E-2,2.236068E0,4E0,8E0,1.2E1,1.6E1,2.1213203E1,3.6796738E1,3.844404E-2,2.8501485E-2,3E0,5E0,7E0,8.944272E0,1.1401754E1,1.3E1,1.4764823E1,-3.658831E-2,1.9416489E1,-5.3592283E-2,-5.6666363E-2,-6.1805528E-2,2.2549784E-2,1.5239607E-2,8.97264E-3,5.286285E-3,1.0321145E-3,-2.72059E-3,-5.5331793E-3,-9.2721945E-3,-1.7771201E-2,-1.5269071E-2,-2.0965215E-2,-2.3983682E-2,-2.8011797E-2,-3.1597674E-2,-4.301278E-2,-4.64089E-2],"split_indices":[0,0,0,0,0,0,0,0,0,0,0,0,0,0,0,0,0,0,0,0,0,0,0,0,0,0,0,0,0,0,0,0,0,0,0,0,0,0,0,0,0,0,0,0,0],"split_type":[0,0,0,0,0,0,0,0,0,0,0,0,0,0,0,0,0,0,0,0,0,0,0,0,0,0,0,0,0,0,0,0,0,0,0,0,0,0,0,0,0,0,0,0,0],"sum_hessian":[4.9154555E4,3.2184818E4,1.6969736E4,1.554847E4,1.663635E4,5.9037466E3,1.106599E4,8.92929E3,6.6191797E3,8.795183E3,7.841166E3,3.1414424E3,2.7623044E3,2.7570557E3,8.308935E3,5.147825E3,1.4713544E3,4.0468684E3,4.7483145E3,4.193432E3,3.647734E3,1.3720432E3,1.769399E3,1.3714192E3,1.3908853E3,1.0609656E3,1.69609E3,1.0147018E3,7.2942324E3,6.685359E2,3.3783325E3,2.6082996E3,2.140015E3,2.3857595E3,1.8076727E3,1.4297301E3,2.2180037E3,1.0395238E3,3.3251947E2,9.444753E2,8.249238E2,6.067703E2,7.6464886E2,4.0586374E2,6.551018E2],"tree_param":{"num_deleted":"0","num_feature":"2","num_nodes":"45","size_leaf_vector":"1"}},{"base_weights":[-4.9316264E-3,4.6789575E-1,-9.280629E-1,8.853974E-1,7.606463E-2,-5.2613807E-1,-1.1625363E0,5.129491E-2,6.982541E-1,2.1849135E-1,-8.520582E-2,-3.9325118E-1,-6.645742E-1,-1.0097448E0,-1.2118475E0,7.382441E-1,2.7890608E-2,3.0873844E-1,1.4216892E-1,-3.0050334E-2,-1.6451442E-1,-3.2899937E-1,-4.4305694E-1,-5.8245313E-1,-7.2702384E-1,-4.5548234E-2,-1.0519334E0,-5.644659E-2,-6.1093E-2,3.8154185E-2,3.647282E-2,2.0807471E-2,1.4378048E-2,8.892657E-3,4.938612E-3,2.9311774E-3,-2.1026428E-3,-7.4205236E-3,-1.0738055E-2,-1.3670106E-2,-1.7700635E-2,-2.0890566E-2,-2.3586366E-2,-2.8083414E-2,-3.0434135E-2,-3.5372373E-2,-4.1408878E-2,-5.129494E-2,-5.4317635E-2],"categories":[],"categories_nodes":[],"categories_segments":[],"categories_sizes":[],"default_left":[0,0,0,0,0,0,0,0,0,0,0,0,0,0,0,0,0,0,0,0,0,0,0,0,0,0,0,0,0,0,0,0,0,0,0,0,0,0,0,0,0,0,0,0,0,0,0,0,0],"id":12,"left_children":[1,3,5,7,9,11,13,-1,15,17,19,21,23,25,27,29,-1,31,33,35,37,39,41,43,45,-1,47,-1,-1,-1,-1,-1,-1,-1,-1,-1,-1,-1,-1,-1,-1,-1,-1,-1,-1,-1,-1,-1,-1],"loss_changes":[2.1321518E4,5.284386E3,1.5586553E3,4.104961E2,3.8279828E2,1.1191675E2,7.750098E1,0E0,3.7270996E1,6.0911987E1,3.41853E1,9.818512E0,1.4885498E1,9.690918E0,5.173828E0,5.8251953E-1,0E0,9.102203E0,7.4103775E0,4.9103074E0,2.5622253E0,1.7994843E0,1.070404E0,3.6380005E-1,2.763977E0,0E0,4.8425293E-1,0E0,0E0,0E0,0E0,0E0,0E0,0E0,0E0,0E0,0E0,0E0,0E0,0E0,0E0,0E0,0E0,0E0,0E0,0E0,0E0,0E0,0E0],"parents":[2147483647,0,0,1,1,2,2,3,3,4,4,5,5,6,6,8,8,9,9,10,10,11,11,12,12,13,13,14,14,15,15,17,17,18,18,19,19,20,20,21,21,22,22,23,23,24,24,26,26],"right_children":[2,4,6,8,10,12,14,-1,16,18,20,22,24,26,28,30,-1,32,34,36,38,40,42,44,46,-1,48,-1,-1,-1,-1,-1,-1,-1,-1,-1,-1,-1,-1,-1,-1,-1,-1,-1,-1,-1,-1,-1,-1],"split_conditions":[1.0440307E1,2.828427E0,1.9104973E1,1.4142135E0,5.656854E0,1.3928389E1,2.915476E1,5.129491E-2,2.236068E0,4E0,8.062258E0,1.2E1,1.5811388E1,2.1213203E1,3.6796738E1,2E0,2.7890608E-2,3E0,5E0,6E0,1E1,1.1E1,1.3E1,1.5E1,1.8439089E1,-4.5548234E-2,2.5079872E1,-5.644659E-2,-6.1093E-2,3.8154185E-2,3.647282E-2,2.0807471E-2,1.4378048E-2,8.892657E-3,4.938612E-3,2.9311774E-3,-2.1026428E-3,-7.4205236E-3,-1.0738055E-2,-1.3670106E-2,-1.7700635E-2,-2.0890566E-2,-2.3586366E-2,-2.8083414E-2,-3.0434135E-2,-3.5372373E-2,-4.1408878E-2,-5.129494E-2,-5.4317635E-2],"split_indices":[0,0,0,0,0,0,0,0,0,0,0,0,0,0,0,0,0,0,0,0,0,0,0,0,0,0,0,0,0,0,0,0,0,0,0,0,0,0,0,0,0,0,0,0,0,0,0,0,0],"split_type":[0,0,0,0,0,0,0,0,0,0,0,0,0,0,0,0,0,0,0,0,0,0,0,0,0,0,0,0,0,0,0,0,0,0,0,0,0,0,0,0,0,0,0,0,0,0,0,0,0],"sum_hessian":[4.8846594E4,3.2302012E4,1.654458E4,1.5638116E4,1.6663896E4,6.096849E3,1.0447731E4,8.929596E3,6.7085205E3,8.848738E3,7.8151567E3,3.1127322E3,2.984117E3,2.554393E3,7.893339E3,5.2183657E3,1.4901548E3,4.0531113E3,4.7956274E3,4.61029E3,3.2048667E3,1.3625647E3,1.7501675E3,1.2934983E3,1.6906185E3,7.7123096E2,1.7831621E3,8.627127E2,7.030626E3,1.3412731E3,3.8770925E3,6.644432E2,3.3886682E3,2.629963E3,2.1656646E3,5.4917017E2,4.06112E3,2.430008E3,7.7485864E2,4.265034E2,9.360613E2,9.389504E2,8.112171E2,7.341536E2,5.593447E2,1.4231829E3,2.674356E2,1.032781E3,7.503811E2],"tree_param":{"num_deleted":"0","num_feature":"2","num_nodes":"49","size_leaf_vector":"1"}},{"base_weights":[-4.001946E-3,8.981093E-1,-7.553348E-1,1.3748177E0,5.706045E-1,-3.2626638E-1,-1.0849006E0,7.511135E-2,1.2630152E0,7.6278E-1,2.8819832E-1,-1.4094183E-1,-5.311268E-1,-9.452235E-1,-1.1855136E0,6.4025335E-2,5.6260712E-2,8.801102E-1,6.0722095E-1,4.023414E-1,1.7607796E-1,-7.282864E-2,-2.4380574E-1,-4.3531492E-1,-6.296612E-1,-8.5066265E-1,-1.0090312E0,-5.5497613E-2,-6.0359497E-2,4.434209E-2,4.0698074E-2,3.0953825E-2,2.7571429E-2,1.8840054E-2,2.3141814E-2,1.003344E-2,4.486443E-3,-9.550519E-4,-6.486433E-3,-1.0560824E-2,-1.5164557E-2,-1.9829305E-2,-2.4245847E-2,-3.01184E-2,-3.3555582E-2,-4.0607333E-2,-4.446414E-2,-4.7552705E-2,-5.141115E-2],"categories":[],"categories_nodes":[],"categories_segments":[],"categories_sizes":[],"default_left":[0,0,0,0,0,0,0,0,0,0,0,0,0,0,0,0,0,0,0,0,0,0,0,0,0,0,0,0,0,0,0,0,0,0,0,0,0,0,0,0,0,0,0,0,0,0,0,0,0],"id":13,"left_children":[1,3,5,7,9,11,13,-1,15,17,19,21,23,25,27,-1,-1,29,31,33,35,37,39,41,43,45,47,-1,-1,-1,-1,-1,-1,-1,-1,-1,-1,-1,-1,-1,-1,-1,-1,-1,-1,-1,-1,-1,-1],"loss_changes":[3.2750738E4,3.4272266E3,3.7275762E3,1.2546289E2,7.0623145E2,4.3478955E2,2.0841406E2,0E0,1.0053711E1,1.4083203E2,6.740738E1,4.2126945E1,5.1083374E1,3.6840332E1,1.2850586E1,0E0,0E0,1.2431641E0,1.8635254E0,3.861267E0,5.6337814E0,1.1065157E1,4.5805664E0,5.1123047E0,2.6273193E0,3.0319824E0,3.1672363E0,0E0,0E0,0E0,0E0,0E0,0E0,0E0,0E0,0E0,0E0,0E0,0E0,0E0,0E0,0E0,0E0,0E0,0E0,0E0,0E0,0E0,0E0],"parents":[2147483647,0,0,1,1,2,2,3,3,4,4,5,5,6,6,8,8,9,9,10,10,11,11,12,12,13,13,14,14,17,17,18,18,19,19,20,20,21,21,22,22,23,23,24,24,25,25,26,26],"right_children":[2,4,6,8,10,12,14,-1,16,18,20,22,24,26,28,-1,-1,30,32,34,36,38,40,42,44,46,48,-1,-1,-1,-1,-1,-1,-1,-1,-1,-1,-1,-1,-1,-1,-1,-1,-1,-1,-1,-1,-1,-1],"split_conditions":[6E0,2E0,1.4764823E1,1E0,4E0,9.219544E0,2.9E1,7.511135E-2,1.4142135E0,3E0,5E0,8E0,1.2E1,1.8439089E1,4.2E1,6.4025335E-2,5.6260712E-2,2.828427E0,3.6055512E0,4.1231055E0,5.3851647E0,7E0,9E0,1.0770329E1,1.3152946E1,1.627882E1,2.022375E1,-5.5497613E-2,-6.0359497E-2,4.434209E-2,4.0698074E-2,3.0953825E-2,2.7571429E-2,1.8840054E-2,2.3141814E-2,1.003344E-2,4.486443E-3,-9.550519E-4,-6.486433E-3,-1.0560824E-2,-1.5164557E-2,-1.9829305E-2,-2.4245847E-2,-3.01184E-2,-3.3555582E-2,-4.0607333E-2,-4.446414E-2,-4.7552705E-2,-5.141115E-2],"split_indices":[1,1,1,1,1,1,1,0,1,1,1,1,1,1,1,0,0,1,1,1,1,1,1,1,1,1,1,0,0,0,0,0,0,0,0,0,0,0,0,0,0,0,0,0,0,0,0,0,0],"split_type":[0,0,0,0,0,0,0,0,0,0,0,0,0,0,0,0,0,0,0,0,0,0,0,0,0,0,0,0,0,0,0,0,0,0,0,0,0,0,0,0,0,0,0,0,0,0,0,0,0],"sum_hessian":[4.8318184E4,2.1955924E4,2.6362262E4,8.939946E3,1.3015977E4,1.1453154E4,1.4909106E4,4.1725317E3,4.767415E3,7.744319E3,5.271658E3,6.0141826E3,5.438972E3,6.247017E3,8.66209E3,4.22307E3,5.443451E2,4.411952E3,3.3323667E3,2.6109832E3,2.660675E3,3.6193035E3,2.3948792E3,2.7603296E3,2.6786426E3,2.522737E3,3.7242798E3,1.9425936E3,6.7194956E3,3.9931836E3,4.1876837E2,2.7400315E3,5.9233527E2,1.8409725E3,7.700106E2,2.069882E3,5.907931E2,1.8622334E3,1.7570701E3,1.5501663E3,8.447128E2,1.5551083E3,1.2052213E3,1.6245111E3,1.0541315E3,1.2741008E3,1.2486361E3,9.387932E2,2.7854866E3],"tree_param":{"num_deleted":"0","num_feature":"2","num_nodes":"49","size_leaf_vector":"1"}},{"base_weights":[-3.4041307E-3,4.2137328E-1,-9.074717E-1,8.154333E-1,6.174805E-2,-5.2038246E-1,-1.1370981E0,4.755745E-2,6.349903E-1,1.9055349E-1,-7.854462E-2,-4.0761566E-1,-6.7442024E-1,-1.0073125E0,-5.97529E-2,6.7371887E-1,2.5030388E-2,2.7471575E-1,1.1898208E-1,-3.2411896E-2,-1.527588E-1,-3.492041E-1,-4.6869406E-1,-6.481782E-1,-3.8462147E-2,-9.1012365E-1,-1.0464566E0,3.458093E-2,3.3364635E-2,1.85688E-2,1.2756811E-2,6.9275624E-3,4.736293E-3,-3.086411E-4,-2.5727516E-3,-6.4666765E-3,-9.831661E-3,-1.5917314E-2,-1.9724367E-2,-2.1768896E-2,-2.6297236E-2,-3.0594602E-2,-3.3490296E-2,-4.4289257E-2,-4.8218656E-2,-5.1206596E-2,-5.4535277E-2],"categories":[],"categories_nodes":[],"categories_segments":[],"categories_sizes":[],"default_left":[0,0,0,0,0,0,0,0,0,0,0,0,0,0,0,0,0,0,0,0,0,0,0,0,0,0,0,0,0,0,0,0,0,0,0,0,0,0,0,0,0,0,0,0,0,0,0],"id":14,"left_children":[1,3,5,7,9,11,13,-1,15,17,19,21,23,25,-1,27,-1,29,31,33,35,37,39,41,-1,43,45,-1,-1,-1,-1,-1,-1,-1,-1,-1,-1,-1,-1,-1,-1,-1,-1,-1,-1,-1,-1],"loss_changes":[1.8383537E4,4.6153135E3,1.3595586E3,3.7995508E2,3.077398E2,9.87262E1,7.103906E1,0E0,3.4395996E1,5.3447052E1,2.790446E1,1.15849E1,5.4918213E0,1.035083E1,0E0,1.3427734E-1,0E0,7.625946E0,2.265236E0,2.512168E0,3.1859207E0,2.23201E0,2.835907E0,1.0750122E0,0E0,2.822876E-1,9.6875E-1,0E0,0E0,0E0,0E0,0E0,0E0,0E0,0E0,0E0,0E0,0E0,0E0,0E0,0E0,0E0,0E0,0E0,0E0,0E0,0E0],"parents":[2147483647,0,0,1,1,2,2,3,3,4,4,5,5,6,6,8,8,9,9,10,10,11,11,12,12,13,13,15,15,17,17,18,18,19,19,20,20,21,21,22,22,23,23,25,25,26,26],"right_children":[2,4,6,8,10,12,14,-1,16,18,20,22,24,26,-1,28,-1,30,32,34,36,38,40,42,-1,44,46,-1,-1,-1,-1,-1,-1,-1,-1,-1,-1,-1,-1,-1,-1,-1,-1,-1,-1,-1,-1],"split_conditions":[1.0816654E1,2.828427E0,1.9416489E1,1.4142135E0,5.656854E0,1.4764823E1,3.522783E1,4.755745E-2,2.236068E0,4E0,8.246211E0,1.2529964E1,1.8110771E1,2.2090721E1,-5.97529E-2,2E0,2.5030388E-2,3E0,5E0,6.708204E0,1E1,1.2E1,1.3928389E1,1.6E1,-3.8462147E-2,2.1213203E1,2.915476E1,3.458093E-2,3.3364635E-2,1.85688E-2,1.2756811E-2,6.9275624E-3,4.736293E-3,-3.086411E-4,-2.5727516E-3,-6.4666765E-3,-9.831661E-3,-1.5917314E-2,-1.9724367E-2,-2.1768896E-2,-2.6297236E-2,-3.0594602E-2,-3.3490296E-2,-4.4289257E-2,-4.8218656E-2,-5.1206596E-2,-5.4535277E-2],"split_indices":[0,0,0,0,0,0,0,0,0,0,0,0,0,0,0,0,0,0,0,0,0,0,0,0,0,0,0,0,0,0,0,0,0,0,0,0,0,0,0,0,0,0,0,0,0,0,0],"split_type":[0,0,0,0,0,0,0,0,0,0,0,0,0,0,0,0,0,0,0,0,0,0,0,0,0,0,0,0,0,0,0,0,0,0,0,0,0,0,0,0,0,0,0,0,0,0,0],"sum_hessian":[4.7868375E4,3.2567176E4,1.5301198E4,1.5539008E4,1.7028168E4,5.6984272E3,9.6027705E3,8.866228E3,6.6727803E3,8.877345E3,8.1508223E3,3.2920525E3,2.4063748E3,2.9701924E3,6.632578E3,5.1768247E3,1.4959554E3,4.078508E3,4.7988364E3,5.0272446E3,3.123578E3,1.6861965E3,1.6058561E3,1.8909054E3,5.154693E2,8.597676E2,2.1104248E3,1.3393981E3,3.8374265E3,6.839608E2,3.394547E3,2.653423E3,2.1454133E3,2.1147317E3,2.912513E3,2.0389148E3,1.0846631E3,1.00760474E3,6.785918E2,1.0205611E3,5.85295E2,7.170887E2,1.1738167E3,6.0546124E2,2.5430637E2,1.4187675E3,6.9165735E2],"tree_param":{"num_deleted":"0","num_feature":"2","num_nodes":"47","size_leaf_vector":"1"}},{"base_weights":[-2.0754642E-3,8.3123434E-1,-7.2157663E-1,1.2950541E0,5.1583755E-1,-3.233644E-1,-1.0515099E0,7.1059965E-2,1.1845919E0,7.000275E-1,2.4581589E-1,-1.625767E-1,-5.163341E-1,-9.065779E-1,-1.1577423E0,5.9977382E-2,5.330913E-2,8.075566E-1,5.5750364E-1,3.4410286E-1,1.4812121E-1,-7.983669E-2,-2.767978E-1,-4.2124215E-1,-6.0289395E-1,-8.080963E-1,-9.719677E-1,-5.3666472E-2,-5.913004E-2,4.073581E-2,3.6848072E-2,2.6959145E-2,2.9996812E-2,1.6618283E-2,1.8626105E-2,7.845531E-3,5.8624195E-3,-9.7045535E-4,-7.2080307E-3,-1.2460592E-2,-1.5785761E-2,-2.004554E-2,-2.243592E-2,-2.9441927E-2,-3.1829264E-2,-3.831398E-2,-4.2302478E-2,-4.640135E-2,-4.9926173E-2],"categories":[],"categories_nodes":[],"categories_segments":[],"categories_sizes":[],"default_left":[0,0,0,0,0,0,0,0,0,0,0,0,0,0,0,0,0,0,0,0,0,0,0,0,0,0,0,0,0,0,0,0,0,0,0,0,0,0,0,0,0,0,0,0,0,0,0,0,0],"id":15,"left_children":[1,3,5,7,9,11,13,-1,15,17,19,21,23,25,27,-1,-1,29,31,33,35,37,39,41,43,45,47,-1,-1,-1,-1,-1,-1,-1,-1,-1,-1,-1,-1,-1,-1,-1,-1,-1,-1,-1,-1,-1,-1],"loss_changes":[2.8396486E4,3.2096338E3,3.338958E3,1.22078125E2,6.495845E2,3.5728662E2,2.1295215E2,0E0,7.117676E0,1.1856665E2,5.083371E1,5.9369247E1,4.283313E1,3.710254E1,1.5552734E1,0E0,0E0,1.6359863E0,2.2752686E0,7.570801E-1,7.032471E-1,1.4168261E1,2.755066E0,1.2153625E0,9.216919E-1,3.0871582E0,3.1936035E0,0E0,0E0,0E0,0E0,0E0,0E0,0E0,0E0,0E0,0E0,0E0,0E0,0E0,0E0,0E0,0E0,0E0,0E0,0E0,0E0,0E0,0E0],"parents":[2147483647,0,0,1,1,2,2,3,3,4,4,5,5,6,6,8,8,9,9,10,10,11,11,12,12,13,13,14,14,17,17,18,18,19,19,20,20,21,21,22,22,23,23,24,24,25,25,26,26],"right_children":[2,4,6,8,10,12,14,-1,16,18,20,22,24,26,28,-1,-1,30,32,34,36,38,40,42,44,46,48,-1,-1,-1,-1,-1,-1,-1,-1,-1,-1,-1,-1,-1,-1,-1,-1,-1,-1,-1,-1,-1,-1],"split_conditions":[6E0,2E0,1.5E1,1E0,4E0,9.486833E0,2.9E1,7.1059965E-2,1.4142135E0,3E0,5E0,8E0,1.2E1,1.8439089E1,4.2E1,5.9977382E-2,5.330913E-2,2.828427E0,3.1622777E0,4.1231055E0,5.3851647E0,7E0,9E0,1.1E1,1.4E1,1.627882E1,2.1213203E1,-5.3666472E-2,-5.913004E-2,4.073581E-2,3.6848072E-2,2.6959145E-2,2.9996812E-2,1.6618283E-2,1.8626105E-2,7.845531E-3,5.8624195E-3,-9.7045535E-4,-7.2080307E-3,-1.2460592E-2,-1.5785761E-2,-2.004554E-2,-2.243592E-2,-2.9441927E-2,-3.1829264E-2,-3.831398E-2,-4.2302478E-2,-4.640135E-2,-4.9926173E-2],"split_indices":[1,1,1,1,1,1,1,0,1,1,1,1,1,1,1,0,0,1,1,1,1,1,1,1,1,1,1,0,0,0,0,0,0,0,0,0,0,0,0,0,0,0,0,0,0,0,0,0,0],"split_type":[0,0,0,0,0,0,0,0,0,0,0,0,0,0,0,0,0,0,0,0,0,0,0,0,0,0,0,0,0,0,0,0,0,0,0,0,0,0,0,0,0,0,0,0,0,0,0,0,0],"sum_hessian":[4.7359625E4,2.19442E4,2.5415426E4,8.880907E3,1.3063292E4,1.1516994E4,1.3898432E4,4.140593E3,4.740315E3,7.764974E3,5.298318E3,6.283364E3,5.23363E3,5.882511E3,8.015921E3,4.20062E3,5.396946E2,4.42318E3,3.3417942E3,2.6398958E3,2.658422E3,3.6448145E3,2.6385493E3,2.4967004E3,2.7369294E3,2.3526348E3,3.5298765E3,1.8336151E3,6.1823057E3,4.0063289E3,4.1685114E2,2.343617E3,9.9817725E2,1.8772742E3,7.626216E2,2.0661208E3,5.923013E2,1.8799974E3,1.7648169E3,1.5483982E3,1.0901511E3,1.4438774E3,1.0528231E3,1.9442854E3,7.926441E2,1.1294296E3,1.2232051E3,1.3432332E3,2.186643E3],"tree_param":{"num_deleted":"0","num_feature":"2","num_nodes":"49","size_leaf_vector":"1"}},{"base_weights":[-3.9057976E-3,3.8472307E-1,-8.485851E-1,7.4530137E-1,4.9681112E-2,-4.5528564E-1,-1.1092814E0,4.3688275E-2,5.752927E-1,1.5744749E-1,-7.448609E-2,-3.1925145E-1,-5.9554195E-1,-9.40181E-1,-1.162645E0,3.0579789E-2,2.2450672E-2,2.3166063E-1,9.390792E-2,-3.1200524E-2,-1.2455198E-1,-2.6061043E-1,-3.6534372E-1,-5.176245E-1,-6.5640545E-1,-4.0746983E-2,-9.8506755E-1,-5.347971E-2,-5.8706988E-2,1.5809704E-2,1.0737263E-2,5.5284607E-3,3.6725998E-3,7.7560236E-4,-1.9193966E-3,-4.6722847E-3,-7.457513E-3,-2.0157676E-2,-1.2314199E-2,-1.6958693E-2,-1.9781103E-2,-2.4000777E-2,-2.8095273E-2,-3.158685E-2,-3.697218E-2,-4.7615882E-2,-5.0891757E-2],"categories":[],"categories_nodes":[],"categories_segments":[],"categories_sizes":[],"default_left":[0,0,0,0,0,0,0,0,0,0,0,0,0,0,0,0,0,0,0,0,0,0,0,0,0,0,0,0,0,0,0,0,0,0,0,0,0,0,0,0,0,0,0,0,0,0,0],"id":16,"left_children":[1,3,5,7,9,11,13,-1,15,17,19,21,23,25,27,-1,-1,29,31,33,35,37,39,41,43,-1,45,-1,-1,-1,-1,-1,-1,-1,-1,-1,-1,-1,-1,-1,-1,-1,-1,-1,-1,-1,-1],"loss_changes":[1.5335066E4,3.8652163E3,1.5088125E3,3.3605273E2,2.219462E2,1.1179956E2,7.878516E1,0E0,3.014502E1,4.184973E1,1.6698456E1,7.9642944E0,1.3359863E1,1.116333E1,5.9365234E0,0E0,0E0,5.787735E0,1.6228828E0,1.3888183E0,2.7202415E0,2.5876617E0,1.1867523E0,1.8480225E0,2.8475952E0,0E0,7.071533E-1,0E0,0E0,0E0,0E0,0E0,0E0,0E0,0E0,0E0,0E0,0E0,0E0,0E0,0E0,0E0,0E0,0E0,0E0,0E0,0E0],"parents":[2147483647,0,0,1,1,2,2,3,3,4,4,5,5,6,6,8,8,9,9,10,10,11,11,12,12,13,13,14,14,17,17,18,18,19,19,20,20,21,21,22,22,23,23,24,24,26,26],"right_children":[2,4,6,8,10,12,14,-1,16,18,20,22,24,26,28,-1,-1,30,32,34,36,38,40,42,44,-1,46,-1,-1,-1,-1,-1,-1,-1,-1,-1,-1,-1,-1,-1,-1,-1,-1,-1,-1,-1,-1],"split_conditions":[1.0440307E1,2.828427E0,1.9416489E1,1.4142135E0,5.656854E0,1.3928389E1,2.915476E1,4.3688275E-2,2.236068E0,4E0,8E0,1.2E1,1.6E1,2.1213203E1,3.6796738E1,3.0579789E-2,2.2450672E-2,3E0,5E0,6E0,9E0,1.0630146E1,1.3E1,1.5E1,1.8439089E1,-4.0746983E-2,2.4698177E1,-5.347971E-2,-5.8706988E-2,1.5809704E-2,1.0737263E-2,5.5284607E-3,3.6725998E-3,7.7560236E-4,-1.9193966E-3,-4.6722847E-3,-7.457513E-3,-2.0157676E-2,-1.2314199E-2,-1.6958693E-2,-1.9781103E-2,-2.4000777E-2,-2.8095273E-2,-3.158685E-2,-3.697218E-2,-4.7615882E-2,-5.0891757E-2],"split_indices":[0,0,0,0,0,0,0,0,0,0,0,0,0,0,0,0,0,0,0,0,0,0,0,0,0,0,0,0,0,0,0,0,0,0,0,0,0,0,0,0,0,0,0,0,0,0,0],"split_type":[0,0,0,0,0,0,0,0,0,0,0,0,0,0,0,0,0,0,0,0,0,0,0,0,0,0,0,0,0,0,0,0,0,0,0,0,0,0,0,0,0,0,0,0,0,0,0],"sum_hessian":[4.6713266E4,3.199378E4,1.4719487E4,1.5409052E4,1.6584729E4,5.868588E3,8.850899E3,8.774564E3,6.6344873E3,8.878603E3,7.706126E3,2.9807976E3,2.8877903E3,2.127576E3,6.723323E3,5.150086E3,1.4844012E3,4.0941082E3,4.7844946E3,4.13379E3,3.572336E3,1.3147528E3,1.6660447E3,1.2706321E3,1.6171582E3,5.663938E2,1.5611821E3,7.4957E2,5.9737534E3,6.7969336E2,3.4144148E3,2.6343884E3,2.1501062E3,5.510746E2,3.5827158E3,1.5796072E3,1.9927288E3,1.17594E2,1.1971588E3,9.001977E2,7.65847E2,6.934809E2,5.771512E2,1.2534102E3,3.6374808E2,7.958364E2,7.653457E2],"tree_param":{"num_deleted":"0","num_feature":"2","num_nodes":"47","size_leaf_vector":"1"}},{"base_weights":[-3.257417E-3,3.6188465E-1,-8.5237825E-1,7.1563023E-1,4.2111263E-2,-4.6431163E-1,-1.0975201E0,4.20313E-2,5.517049E-1,1.4219874E-1,-6.742963E-2,-3.3250576E-1,-5.814792E-1,-9.272321E-1,-1.1522079E0,5.913506E-1,2.0682836E-2,2.1439412E-1,8.031999E-2,-3.0712157E-2,-1.24762125E-1,-2.9156533E-1,-3.9620543E-1,-4.985833E-1,-6.4658284E-1,-4.1079324E-2,-9.6624845E-1,-5.276863E-2,-5.8212496E-2,3.09912E-2,2.9072026E-2,1.564165E-2,9.718875E-3,4.7780243E-3,3.0765785E-3,-4.311537E-4,-2.5419593E-3,-5.5459267E-3,-1.08764935E-2,-1.3492139E-2,-1.6048035E-2,-1.9274803E-2,-2.242347E-2,-2.3485085E-2,-2.6075145E-2,-3.1117806E-2,-3.6428917E-2,-4.6544984E-2,-5.009627E-2],"categories":[],"categories_nodes":[],"categories_segments":[],"categories_sizes":[],"default_left":[0,0,0,0,0,0,0,0,0,0,0,0,0,0,0,0,0,0,0,0,0,0,0,0,0,0,0,0,0,0,0,0,0,0,0,0,0,0,0,0,0,0,0,0,0,0,0,0,0],"id":17,"left_children":[1,3,5,7,9,11,13,-1,15,17,19,21,23,25,27,29,-1,31,33,35,37,39,41,43,45,-1,47,-1,-1,-1,-1,-1,-1,-1,-1,-1,-1,-1,-1,-1,-1,-1,-1,-1,-1,-1,-1,-1,-1],"loss_changes":[1.4346485E4,3.660166E3,1.3231836E3,3.143125E2,1.8634502E2,8.302429E1,7.833887E1,0E0,3.6146484E1,3.965915E1,1.7079746E1,6.5038757E0,1.5065979E1,7.77063E0,6.2929688E0,1.0964355E0,0E0,8.014755E0,1.3639946E0,2.199555E0,4.0442505E0,9.024353E-1,3.814087E-1,5.881958E-1,2.7124023E0,0E0,9.73999E-1,0E0,0E0,0E0,0E0,0E0,0E0,0E0,0E0,0E0,0E0,0E0,0E0,0E0,0E0,0E0,0E0,0E0,0E0,0E0,0E0,0E0,0E0],"parents":[2147483647,0,0,1,1,2,2,3,3,4,4,5,5,6,6,8,8,9,9,10,10,11,11,12,12,13,13,14,14,15,15,17,17,18,18,19,19,20,20,21,21,22,22,23,23,24,24,26,26],"right_children":[2,4,6,8,10,12,14,-1,16,18,20,22,24,26,28,30,-1,32,34,36,38,40,42,44,46,-1,48,-1,-1,-1,-1,-1,-1,-1,-1,-1,-1,-1,-1,-1,-1,-1,-1,-1,-1,-1,-1,-1,-1],"split_conditions":[1.1E1,2.828427E0,1.9416489E1,1.4142135E0,5.656854E0,1.3928389E1,2.915476E1,4.20313E-2,2.236068E0,4E0,8.246211E0,1.2529964E1,1.6E1,2.1213203E1,3.6796738E1,2E0,2.0682836E-2,3E0,5E0,7E0,1.0440307E1,1.2E1,1.3601471E1,1.4764823E1,1.8439089E1,-4.1079324E-2,2.4698177E1,-5.276863E-2,-5.8212496E-2,3.09912E-2,2.9072026E-2,1.564165E-2,9.718875E-3,4.7780243E-3,3.0765785E-3,-4.311537E-4,-2.5419593E-3,-5.5459267E-3,-1.08764935E-2,-1.3492139E-2,-1.6048035E-2,-1.9274803E-2,-2.242347E-2,-2.3485085E-2,-2.6075145E-2,-3.1117806E-2,-3.6428917E-2,-4.6544984E-2,-5.009627E-2],"split_indices":[0,0,0,0,0,0,0,0,0,0,0,0,0,0,0,0,0,0,0,0,0,0,0,0,0,0,0,0,0,0,0,0,0,0,0,0,0,0,0,0,0,0,0,0,0,0,0,0,0],"split_type":[0,0,0,0,0,0,0,0,0,0,0,0,0,0,0,0,0,0,0,0,0,0,0,0,0,0,0,0,0,0,0,0,0,0,0,0,0,0,0,0,0,0,0,0,0,0,0,0,0],"sum_hessian":[4.6269566E4,3.2356205E4,1.391336E4,1.5361494E4,1.699471E4,5.3875723E3,8.525788E3,8.713317E3,6.6481777E3,8.880396E3,8.114314E3,2.537212E3,2.8503604E3,2.0768362E3,6.448952E3,5.1623354E3,1.485842E3,4.0974004E3,4.7829966E3,4.9473906E3,3.1669238E3,1.5479226E3,9.892892E2,1.2576565E3,1.5927039E3,5.660863E2,1.51075E3,7.230726E2,5.7258794E3,1.3169567E3,3.845379E3,6.8990753E2,3.4074927E3,2.638585E3,2.1444116E3,2.3594077E3,2.5879827E3,2.7576057E3,4.0931793E2,8.95987E2,6.519356E2,8.280005E2,1.6128865E2,5.6596454E2,6.91692E2,1.2360773E3,3.566266E2,7.724736E2,7.3827637E2],"tree_param":{"num_deleted":"0","num_feature":"2","num_nodes":"49","size_leaf_vector":"1"}},{"base_weights":[-4.2144144E-3,3.2605174E-1,-8.723225E-1,6.8058825E-1,2.3199819E-2,-4.8601848E-1,-1.0888551E0,3.977849E-2,5.302906E-1,1.4062333E-1,-9.2501126E-2,-3.6153057E-1,-6.014881E-1,-9.4470406E-1,-5.766305E-2,5.639438E-1,2.0670105E-2,2.293133E-1,8.904054E-2,-3.4515694E-2,-1.8542089E-1,-3.4345505E-1,-4.1452894E-1,-5.524392E-1,-6.735686E-1,-4.1432563E-2,-9.8628676E-1,2.9369099E-2,2.7784599E-2,1.5206689E-2,1.0475375E-2,5.845551E-3,3.2235843E-3,-1.0082327E-3,-3.8320904E-3,-7.46141E-3,-1.2256596E-2,-2.1539977E-2,-1.6503742E-2,-2.3886906E-2,-1.775042E-2,-2.5789682E-2,-2.9342592E-2,-3.1588376E-2,-3.5874303E-2,-4.698026E-2,-5.0492704E-2],"categories":[],"categories_nodes":[],"categories_segments":[],"categories_sizes":[],"default_left":[0,0,0,0,0,0,0,0,0,0,0,0,0,0,0,0,0,0,0,0,0,0,0,0,0,0,0,0,0,0,0,0,0,0,0,0,0,0,0,0,0,0,0,0,0,0,0],"id":18,"left_children":[1,3,5,7,9,11,13,-1,15,17,19,21,23,25,-1,27,-1,29,31,33,35,37,39,41,43,-1,45,-1,-1,-1,-1,-1,-1,-1,-1,-1,-1,-1,-1,-1,-1,-1,-1,-1,-1,-1,-1],"loss_changes":[1.3144686E4,3.5660146E3,1.056376E3,2.6399023E2,2.4337332E2,6.5046875E1,7.407617E1,0E0,2.58656E1,4.0652527E1,4.860981E1,1.9530029E0,7.9501343E0,1.1274658E1,0E0,6.6955566E-1,0E0,4.7800903E0,3.8426628E0,3.3580637E0,7.4557266E0,1.7707977E0,1.9050674E0,1.4707642E0,1.2881775E0,0E0,1.0748291E0,0E0,0E0,0E0,0E0,0E0,0E0,0E0,0E0,0E0,0E0,0E0,0E0,0E0,0E0,0E0,0E0,0E0,0E0,0E0,0E0],"parents":[2147483647,0,0,1,1,2,2,3,3,4,4,5,5,6,6,8,8,9,9,10,10,11,11,12,12,13,13,15,15,17,17,18,18,19,19,20,20,21,21,22,22,23,23,24,24,26,26],"right_children":[2,4,6,8,10,12,14,-1,16,18,20,22,24,26,-1,28,-1,30,32,34,36,38,40,42,44,-1,46,-1,-1,-1,-1,-1,-1,-1,-1,-1,-1,-1,-1,-1,-1,-1,-1,-1,-1,-1,-1],"split_conditions":[1.2E1,2.828427E0,1.9924858E1,1.4142135E0,5.656854E0,1.4764823E1,3.522783E1,3.977849E-2,2.236068E0,3.6055512E0,8.944272E0,1.3928389E1,1.720465E1,2.2090721E1,-5.766305E-2,2E0,2.0670105E-2,3E0,4.2426405E0,8E0,1.0440307E1,1.20415945E1,1.4142136E1,1.6E1,1.8439089E1,-4.1432563E-2,2.5079872E1,2.9369099E-2,2.7784599E-2,1.5206689E-2,1.0475375E-2,5.845551E-3,3.2235843E-3,-1.0082327E-3,-3.8320904E-3,-7.46141E-3,-1.2256596E-2,-2.1539977E-2,-1.6503742E-2,-2.3886906E-2,-1.775042E-2,-2.5789682E-2,-2.9342592E-2,-3.1588376E-2,-3.5874303E-2,-4.698026E-2,-5.0492704E-2],"split_indices":[0,0,0,0,0,0,0,0,0,0,0,0,0,0,0,0,0,0,0,0,0,0,0,0,0,0,0,0,0,0,0,0,0,0,0,0,0,0,0,0,0,0,0,0,0,0,0],"split_type":[0,0,0,0,0,0,0,0,0,0,0,0,0,0,0,0,0,0,0,0,0,0,0,0,0,0,0,0,0,0,0,0,0,0,0,0,0,0,0,0,0,0,0,0,0,0,0],"sum_hessian":[4.5845156E4,3.3210906E4,1.2634252E4,1.529934E4,1.7911564E4,4.5392573E3,8.0949946E3,8.665623E3,6.633717E3,8.889501E3,9.022064E3,2.1863176E3,2.3529395E3,2.5047068E3,5.5902876E3,5.1477964E3,1.4859204E3,3.2676875E3,5.6218135E3,5.556174E3,3.4658906E3,1.6358711E3,5.504466E2,1.4053202E3,9.476193E2,6.6623785E2,1.838469E3,1.3221766E3,3.8256199E3,6.809404E2,2.586747E3,2.6321687E3,2.9896445E3,4.1454336E3,1.4107399E3,2.1600918E3,1.3057987E3,2.131647E2,1.4227064E3,2.6354382E2,2.869028E2,6.883226E2,7.169976E2,4.9339005E2,4.5422928E2,6.304864E2,1.2079827E3],"tree_param":{"num_deleted":"0","num_feature":"2","num_nodes":"47","size_leaf_vector":"1"}},{"base_weights":[-6.238363E-3,7.3310447E-1,-6.78935E-1,1.1993074E0,4.2158732E-1,-3.2342055E-1,-1.0053651E0,6.622503E-2,1.0896852E0,5.877823E-1,1.8281625E-1,-1.475234E-1,-4.6953797E-1,-8.7001675E-1,-1.1138207E0,5.525847E-2,4.8522092E-2,6.910147E-1,4.518862E-1,2.7848414E-1,8.648089E-2,-5.8178082E-2,-1.9735017E-1,-3.8684443E-1,-5.693738E-1,-7.8585243E-1,-9.276167E-1,-5.1133107E-2,-5.7229698E-2,3.499865E-2,3.0215854E-2,2.17592E-2,2.4535239E-2,1.3309548E-2,1.53875E-2,4.0005813E-3,6.264402E-3,-2.6041477E-3,-3.7009697E-3,-8.281843E-3,-1.1669184E-2,-1.825437E-2,-2.233057E-2,-2.7632985E-2,-3.0079274E-2,-3.7806183E-2,-4.1171446E-2,-4.479633E-2,-4.81856E-2],"categories":[],"categories_nodes":[],"categories_segments":[],"categories_sizes":[],"default_left":[0,0,0,0,0,0,0,0,0,0,0,0,0,0,0,0,0,0,0,0,0,0,0,0,0,0,0,0,0,0,0,0,0,0,0,0,0,0,0,0,0,0,0,0,0,0,0,0,0],"id":19,"left_children":[1,3,5,7,9,11,13,-1,15,17,19,21,23,25,27,-1,-1,29,31,33,35,37,39,41,43,45,47,-1,-1,-1,-1,-1,-1,-1,-1,-1,-1,-1,-1,-1,-1,-1,-1,-1,-1,-1,-1,-1,-1],"loss_changes":[2.2552902E4,3.136872E3,2.7550693E3,1.17302734E2,5.1383276E2,2.92073E2,1.8072168E2,0E0,7.4555664E0,1.0680859E2,4.8974426E1,2.29562E1,5.1035645E1,2.598584E1,1.8094727E1,0E0,0E0,2.9458008E0,1.9255981E0,8.776245E-1,6.553917E-1,1.7462969E-1,3.7457428E0,4.2567444E0,1.1806641E0,1.8858643E0,2.8728027E0,0E0,0E0,0E0,0E0,0E0,0E0,0E0,0E0,0E0,0E0,0E0,0E0,0E0,0E0,0E0,0E0,0E0,0E0,0E0,0E0,0E0,0E0],"parents":[2147483647,0,0,1,1,2,2,3,3,4,4,5,5,6,6,8,8,9,9,10,10,11,11,12,12,13,13,14,14,17,17,18,18,19,19,20,20,21,21,22,22,23,23,24,24,25,25,26,26],"right_children":[2,4,6,8,10,12,14,-1,16,18,20,22,24,26,28,-1,-1,30,32,34,36,38,40,42,44,46,48,-1,-1,-1,-1,-1,-1,-1,-1,-1,-1,-1,-1,-1,-1,-1,-1,-1,-1,-1,-1,-1,-1],"split_conditions":[6E0,2E0,1.5E1,1E0,4E0,9E0,2.9E1,6.622503E-2,1.4142135E0,3E0,5E0,7E0,1.1661903E1,1.8439089E1,4.3416588E1,5.525847E-2,4.8522092E-2,2.828427E0,3.1622777E0,4.1231055E0,5.656854E0,6.3245554E0,8E0,1.1E1,1.3601471E1,1.7E1,2.3E1,-5.1133107E-2,-5.7229698E-2,3.499865E-2,3.0215854E-2,2.17592E-2,2.4535239E-2,1.3309548E-2,1.53875E-2,4.0005813E-3,6.264402E-3,-2.6041477E-3,-3.7009697E-3,-8.281843E-3,-1.1669184E-2,-1.825437E-2,-2.233057E-2,-2.7632985E-2,-3.0079274E-2,-3.7806183E-2,-4.1171446E-2,-4.479633E-2,-4.81856E-2],"split_indices":[1,1,1,1,1,1,1,0,1,1,1,1,1,1,1,0,0,1,1,1,1,1,1,1,1,1,1,0,0,0,0,0,0,0,0,0,0,0,0,0,0,0,0,0,0,0,0,0,0],"split_type":[0,0,0,0,0,0,0,0,0,0,0,0,0,0,0,0,0,0,0,0,0,0,0,0,0,0,0,0,0,0,0,0,0,0,0,0,0,0,0,0,0,0,0,0,0,0,0,0,0],"sum_hessian":[4.534383E4,2.1601791E4,2.3742037E4,8.651493E3,1.2950298E4,1.1365683E4,1.23763545E4,4.0337236E3,4.6177695E3,7.6347324E3,5.3155654E3,5.1582065E3,6.2074766E3,5.5096035E3,6.866751E3,4.0797332E3,5.380363E2,4.3364775E3,3.2982546E3,2.6660735E3,2.649492E3,1.8475312E3,3.3106753E3,3.3978923E3,2.809584E3,2.244546E3,3.2650576E3,1.7416808E3,5.12507E3,3.923951E3,4.125268E2,2.3145857E3,9.8366876E2,1.8845568E3,7.8151666E2,2.273547E3,3.7594498E2,1.3372836E3,5.1024768E2,1.7638746E3,1.5468007E3,2.4962788E3,9.016135E2,1.8617242E3,9.478598E2,1.2649211E3,9.796248E2,1.7523716E3,1.5126859E3],"tree_param":{"num_deleted":"0","num_feature":"2","num_nodes":"49","size_leaf_vector":"1"}},{"base_weights":[-6.8186037E-3,2.954482E-1,-8.40964E-1,6.236076E-1,1.817336E-2,-4.8459658E-1,-1.0837935E0,3.71561E-2,4.6849248E-1,1.12536E-1,-8.810644E-2,-3.818199E-1,-6.267352E-1,-9.495359E-1,-5.689267E-2,4.9492657E-1,1.8876558E-2,1.9072531E-1,7.168139E-2,-3.3913698E-2,-1.670322E-1,-3.2866868E-1,-4.5198148E-1,-5.622202E-1,-3.6916375E-2,-4.5536857E-2,-4.971836E-2,2.626319E-2,2.421883E-2,1.1961746E-2,8.880996E-3,4.784848E-3,2.6921858E-3,-4.8703696E-3,-1.2115999E-3,-6.506701E-3,-1.1410209E-2,-1.4976859E-2,-1.7378937E-2,-2.084834E-2,-2.39735E-2,-2.7736103E-2,-3.1738367E-2],"categories":[],"categories_nodes":[],"categories_segments":[],"categories_sizes":[],"default_left":[0,0,0,0,0,0,0,0,0,0,0,0,0,0,0,0,0,0,0,0,0,0,0,0,0,0,0,0,0,0,0,0,0,0,0,0,0,0,0,0,0,0,0],"id":20,"left_children":[1,3,5,7,9,11,13,-1,15,17,19,21,23,25,-1,27,-1,29,31,33,35,37,39,41,-1,-1,-1,-1,-1,-1,-1,-1,-1,-1,-1,-1,-1,-1,-1,-1,-1,-1,-1],"loss_changes":[1.1310583E4,2.9960737E3,1.0320146E3,2.792124E2,1.7900974E2,7.042639E1,5.0418945E1,0E0,1.5599121E1,3.0188507E1,3.5900414E1,1.0330078E1,1.4187805E1,2.6479492E0,0E0,1.3726807E0,0E0,2.0199432E0,2.655779E0,3.058054E0,7.683525E0,7.786255E-1,9.632263E-1,3.4936523E-1,0E0,0E0,0E0,0E0,0E0,0E0,0E0,0E0,0E0,0E0,0E0,0E0,0E0,0E0,0E0,0E0,0E0,0E0,0E0],"parents":[2147483647,0,0,1,1,2,2,3,3,4,4,5,5,6,6,8,8,9,9,10,10,11,11,12,12,13,13,15,15,17,17,18,18,19,19,20,20,21,21,22,22,23,23],"right_children":[2,4,6,8,10,12,14,-1,16,18,20,22,24,26,-1,28,-1,30,32,34,36,38,40,42,-1,-1,-1,-1,-1,-1,-1,-1,-1,-1,-1,-1,-1,-1,-1,-1,-1,-1,-1],"split_conditions":[1.2E1,2.828427E0,2.1213203E1,1.4142135E0,6E0,1.6E1,3.6796738E1,3.71561E-2,2.236068E0,3.6055512E0,8.944272E0,1.3928389E1,1.8973665E1,2.7018513E1,-5.689267E-2,2E0,1.8876558E-2,3E0,4.2426405E0,6.0827627E0,1.0440307E1,1.2529964E1,1.4764823E1,1.8439089E1,-3.6916375E-2,-4.5536857E-2,-4.971836E-2,2.626319E-2,2.421883E-2,1.1961746E-2,8.880996E-3,4.784848E-3,2.6921858E-3,-4.8703696E-3,-1.2115999E-3,-6.506701E-3,-1.1410209E-2,-1.4976859E-2,-1.7378937E-2,-2.084834E-2,-2.39735E-2,-2.7736103E-2,-3.1738367E-2],"split_indices":[0,0,0,0,0,0,0,0,0,0,0,0,0,0,0,0,0,0,0,0,0,0,0,0,0,0,0,0,0,0,0,0,0,0,0,0,0,0,0,0,0,0,0],"split_type":[0,0,0,0,0,0,0,0,0,0,0,0,0,0,0,0,0,0,0,0,0,0,0,0,0,0,0,0,0,0,0,0,0,0,0,0,0,0,0,0,0,0,0],"sum_hessian":[4.4857344E4,3.2926508E4,1.1930836E4,1.5079007E4,1.7847502E4,4.836284E3,7.094552E3,8.514719E3,6.5642876E3,9.453746E3,8.393756E3,2.8089172E3,2.0273668E3,2.0419446E3,5.052607E3,5.082757E3,1.4815306E3,3.2431663E3,6.21058E3,4.977493E3,3.416263E3,1.6014307E3,1.2074867E3,1.2884889E3,7.388779E2,1.1060443E3,9.3590027E2,1.2988976E3,3.7838594E3,6.861454E2,2.557021E3,2.6450623E3,3.5655176E3,6.57364E2,4.320129E3,2.1328699E3,1.2833931E3,6.36982E2,9.644486E2,5.3815564E2,6.693311E2,1.1756268E3,1.1286205E2],"tree_param":{"num_deleted":"0","num_feature":"2","num_nodes":"43","size_leaf_vector":"1"}},{"base_weights":[-5.3156526E-3,6.8649054E-1,-6.5142924E-1,1.1348553E0,3.8950327E-1,-3.1483206E-1,-9.784622E-1,6.293531E-2,1.0272268E0,5.496733E-1,1.6047476E-1,-1.726744E-1,-4.7087583E-1,-8.3794105E-1,-1.0953971E0,5.215025E-2,4.5305323E-2,6.412742E-1,4.3059522E-1,2.4719495E-1,7.457242E-2,-5.3845495E-2,-2.2784388E-1,-3.9726058E-1,-5.490769E-1,-7.3092794E-1,-8.919541E-1,-9.913315E-1,-5.641156E-2,3.2433987E-2,2.8397515E-2,2.0645091E-2,2.3542227E-2,1.28455E-2,8.618531E-3,3.4377147E-3,5.5092215E-3,-2.3922466E-3,-3.4662639E-3,-8.635349E-3,-1.3515323E-2,-1.895038E-2,-2.1417852E-2,-2.5595088E-2,-2.8477386E-2,-3.544188E-2,-3.8126778E-2,-4.250471E-2,-4.6353396E-2,-5.1461454E-2,-4.8627164E-2],"categories":[],"categories_nodes":[],"categories_segments":[],"categories_sizes":[],"default_left":[0,0,0,0,0,0,0,0,0,0,0,0,0,0,0,0,0,0,0,0,0,0,0,0,0,0,0,0,0,0,0,0,0,0,0,0,0,0,0,0,0,0,0,0,0,0,0,0,0,0,0],"id":21,"left_children":[1,3,5,7,9,11,13,-1,15,17,19,21,23,25,27,-1,-1,29,31,33,35,37,39,41,43,45,47,49,-1,-1,-1,-1,-1,-1,-1,-1,-1,-1,-1,-1,-1,-1,-1,-1,-1,-1,-1,-1,-1,-1,-1],"loss_changes":[1.9866893E4,2.857705E3,2.5295322E3,1.12703125E2,4.736167E2,2.5118225E2,1.9061523E2,0E0,7.810547E0,8.2606445E1,3.958087E1,3.885521E1,3.086377E1,2.9973633E1,2.0608398E1,0E0,0E0,1.9624023E0,2.1605835E0,1.8783112E0,5.4602623E-1,1.7141724E-1,9.43222E0,1.4182739E0,1.6987915E0,7.0422363E-1,4.3808594E0,9.082031E-2,0E0,0E0,0E0,0E0,0E0,0E0,0E0,0E0,0E0,0E0,0E0,0E0,0E0,0E0,0E0,0E0,0E0,0E0,0E0,0E0,0E0,0E0,0E0],"parents":[2147483647,0,0,1,1,2,2,3,3,4,4,5,5,6,6,8,8,9,9,10,10,11,11,12,12,13,13,14,14,17,17,18,18,19,19,20,20,21,21,22,22,23,23,24,24,25,25,26,26,27,27],"right_children":[2,4,6,8,10,12,14,-1,16,18,20,22,24,26,28,-1,-1,30,32,34,36,38,40,42,44,46,48,50,-1,-1,-1,-1,-1,-1,-1,-1,-1,-1,-1,-1,-1,-1,-1,-1,-1,-1,-1,-1,-1,-1,-1],"split_conditions":[6E0,2E0,1.5E1,1E0,4E0,9.055386E0,2.9E1,6.293531E-2,1.4142135E0,3E0,5E0,7E0,1.2E1,1.8E1,4.2E1,5.215025E-2,4.5305323E-2,2.828427E0,3.1622777E0,4.472136E0,5.656854E0,6.3245554E0,8E0,1.1E1,1.3E1,1.627882E1,2.1213203E1,3.2E1,-5.641156E-2,3.2433987E-2,2.8397515E-2,2.0645091E-2,2.3542227E-2,1.28455E-2,8.618531E-3,3.4377147E-3,5.5092215E-3,-2.3922466E-3,-3.4662639E-3,-8.635349E-3,-1.3515323E-2,-1.895038E-2,-2.1417852E-2,-2.5595088E-2,-2.8477386E-2,-3.544188E-2,-3.8126778E-2,-4.250471E-2,-4.6353396E-2,-5.1461454E-2,-4.8627164E-2],"split_indices":[1,1,1,1,1,1,1,0,1,1,1,1,1,1,1,0,0,1,1,1,1,1,1,1,1,1,1,1,0,0,0,0,0,0,0,0,0,0,0,0,0,0,0,0,0,0,0,0,0,0,0],"split_type":[0,0,0,0,0,0,0,0,0,0,0,0,0,0,0,0,0,0,0,0,0,0,0,0,0,0,0,0,0,0,0,0,0,0,0,0,0,0,0,0,0,0,0,0,0,0,0,0,0,0,0],"sum_hessian":[4.4444406E4,2.146324E4,2.2981166E4,8.550955E3,1.2912286E4,1.1325949E4,1.1655217E4,3.9708726E3,4.5800825E3,7.597563E3,5.3147227E3,5.9277803E3,5.398169E3,5.2974336E3,6.357783E3,4.0454722E3,5.3461017E2,4.291749E3,3.305814E3,2.6438374E3,2.6708853E3,1.8801412E3,4.047639E3,2.7837456E3,2.614423E3,1.7817961E3,3.5156372E3,1.5323329E3,4.8254507E3,3.8909294E3,4.008197E2,2.3041702E3,1.0016437E3,2.3378606E3,3.0597675E2,2.2983262E3,3.725591E2,1.3578691E3,5.2227203E2,1.7632096E3,2.2844292E3,1.7624275E3,1.0213181E3,9.376484E2,1.6767747E3,1.0625869E3,7.192093E2,1.615261E3,1.9003763E3,4.900579E2,1.042275E3],"tree_param":{"num_deleted":"0","num_feature":"2","num_nodes":"51","size_leaf_vector":"1"}}]},"name":"gbtree"},"learner_model_param":{"base_score":"[3.3333334E-1]","boost_from_average":"1","num_class":"0","num_feature":"2","num_target":"1"},"objective":{"name":"binary:logistic","reg_loss_param":{"scale_pos_weight":"1"}}},"version":[3,2,0]}